{"version":"0.7.0","architecture":"SlimmableContainer","config":{"submodels":[{"max_value":0.5,"model":{"version":"0.7.0","metadata":{"date":{"year":2026,"month":5,"day":16,"hour":20,"minute":23,"second":16},"loudness":-19.942277908325195,"gain":0.031154166735201636},"architecture":"WaveNet","config":{"layers":[{"input_size":1,"condition_size":1,"head":{"out_channels":1,"kernel_size":16,"bias":true},"channels":3,"kernel_sizes":[6,6,6,6,6,6,6,6,6,6,6,6,6,6,15,15,6,6,6,6,6,6,6],"dilations":[1,3,7,17,41,101,239,1,3,7,17,41,101,239,1,13,1,3,7,17,41,101,239],"activation":[{"type":"LeakyReLU","negative_slope":0.01},{"type":"LeakyReLU","negative_slope":0.01},{"type":"LeakyReLU","negative_slope":0.01},{"type":"LeakyReLU","negative_slope":0.01},{"type":"LeakyReLU","negative_slope":0.01},{"type":"LeakyReLU","negative_slope":0.01},{"type":"LeakyReLU","negative_slope":0.01},{"type":"LeakyReLU","negative_slope":0.01},{"type":"LeakyReLU","negative_slope":0.01},{"type":"LeakyReLU","negative_slope":0.01},{"type":"LeakyReLU","negative_slope":0.01},{"type":"LeakyReLU","negative_slope":0.01},{"type":"LeakyReLU","negative_slope":0.01},{"type":"LeakyReLU","negative_slope":0.01},{"type":"LeakyReLU","negative_slope":0.01},{"type":"LeakyReLU","negative_slope":0.01},{"type":"LeakyReLU","negative_slope":0.01},{"type":"LeakyReLU","negative_slope":0.01},{"type":"LeakyReLU","negative_slope":0.01},{"type":"LeakyReLU","negative_slope":0.01},{"type":"LeakyReLU","negative_slope":0.01},{"type":"LeakyReLU","negative_slope":0.01},{"type":"LeakyReLU","negative_slope":0.01}],"bottleneck":3,"head1x1":{"active":false,"out_channels":1,"groups":1},"layer1x1":{"active":true,"groups":1},"groups_input":1,"groups_input_mixin":1,"conv_pre_film":{"active":false,"shift":true,"groups":1},"conv_post_film":{"active":false,"shift":true,"groups":1},"input_mixin_pre_film":{"active":false,"shift":true,"groups":1},"input_mixin_post_film":{"active":false,"shift":true,"groups":1},"activation_pre_film":{"active":false,"shift":true,"groups":1},"activation_post_film":{"active":false,"shift":true,"groups":1},"layer1x1_post_film":{"active":false,"shift":true,"groups":1},"head1x1_post_film":{"active":false,"shift":true,"groups":1},"gating_mode":["none","none","none","none","none","none","none","none","none","none","none","none","none","none","none","none","none","none","none","none","none","none","none"],"secondary_activation":[null,null,null,null,null,null,null,null,null,null,null,null,null,null,null,null,null,null,null,null,null,null,null],"slimmable":null}],"head":null,"head_scale":0.005655724950082893},"weights":[2.199338674545288,2.814239501953125,2.959429979324341,-0.2103966921567917,0.1732134073972702,0.11560195684432983,0.4255281984806061,0.19092868268489838,-1.7986832857131958,-0.31986233592033386,0.2780626714229584,0.11968977749347687,0.24654485285282135,0.1632785052061081,-2.0673727989196777,-0.12443869560956955,0.2456430047750473,-0.005970397964119911,0.32143542170524597,0.17034950852394104,-2.034105062484741,0.10900596529245377,0.17508740723133087,-0.06536515802145004,-0.27267470955848694,-0.0965467095375061,-0.14054235816001892,0.12165941298007965,0.18904930353164673,-0.08251870423555374,-0.29653552174568176,-0.10842367261648178,-0.1637931615114212,0.12266809493303299,0.19058874249458313,-0.08594630658626556,-0.3022248446941376,-0.11029773205518723,-0.16892600059509277,0.15640895068645477,0.354733943939209,0.1543867290019989,0.7294682860374451,-0.47838401794433594,-1.1698514223098755,0.317208856344223,0.25966688990592957,0.14647582173347473,0.5827794671058655,-0.37930822372436523,-1.2664432525634766,0.3080195486545563,0.3494182825088501,0.2063467800617218,0.6587581038475037,-0.45230045914649963,-1.3097198009490967,1.2293195724487305,-0.4715658724308014,0.7811073660850525,-1.5839773416519165,-0.0804171934723854,-1.4965015649795532,-0.4948533773422241,-0.5582991242408752,-1.0537599325180054,-0.6992882490158081,-0.21194638311862946,-1.035367727279663,-0.8407789468765259,-0.4843578040599823,-0.03498450666666031,0.7014862895011902,0.15994884073734283,0.005719596054404974,-0.04337870702147484,0.0027385412249714136,0.026018034666776657,0.04567692428827286,0.0021488445345312357,-0.042760200798511505,0.056476276367902756,0.03938618674874306,0.045301731675863266,0.057226695120334625,0.037815894931554794,0.22564996778964996,0.012367190793156624,-0.00596342608332634,-0.05636969581246376,-0.14738695323467255,-0.1288270354270935,0.7840211391448975,-0.19832240045070648,-0.1635536253452301,-0.11540301889181137,0.010448414832353592,-0.1704375296831131,-0.009281715378165245,0.10394760221242905,0.045421622693538666,0.05875742807984352,0.1377994567155838,-0.058132484555244446,0.011778349988162518,0.21926842629909515,0.17391374707221985,0.04790162667632103,0.10464300215244293,-0.14685074985027313,-0.008655968122184277,-0.05278601869940758,0.049892816692590714,0.03736693784594536,0.06504126638174057,0.459244042634964,-0.5370481014251709,0.06936252117156982,0.07398118823766708,0.04964101314544678,-0.06469123810529709,0.24500969052314758,-0.29203274846076965,-0.01929035224020481,-0.045236773788928986,-0.057189226150512695,-0.06628606468439102,0.10452114790678024,-0.2777893543243408,-0.16312135756015778,-0.3445989489555359,0.2410493791103363,0.4710218906402588,-0.16327300667762756,-0.964850902557373,-0.21427606046199799,-0.3458534777164459,-0.5119491815567017,0.0032844592351466417,-0.2255767434835434,-0.4791465699672699,0.6418663263320923,-0.019580261781811714,-0.01696031540632248,0.35817867517471313,0.04367752745747566,0.3297514021396637,0.02966911345720291,-0.06480444967746735,-0.09508904069662094,-0.027917515486478806,0.369132399559021,-0.425310343503952,-0.031093280762434006,0.04541011154651642,0.011524221859872341,0.03765444830060005,0.15280954539775848,-0.23854777216911316,-0.06833910942077637,0.04413881525397301,0.013430106453597546,0.0035406523384153843,0.4259366989135742,-0.15100768208503723,0.01705792173743248,0.06464030593633652,0.1775820106267929,0.19042661786079407,0.1252468377351761,-0.013291068375110626,-0.05856888368725777,-0.08681494742631912,-0.192935973405838,-0.17467592656612396,-0.10824819654226303,0.01339962799102068,0.10281609743833542,0.07421906292438507,0.09648002684116364,0.04434743523597717,0.02016414701938629,-0.399478018283844,0.09280073642730713,0.12271005660295486,0.0005063690477982163,0.0963413193821907,0.03894805163145065,-0.09662429988384247,-0.1002013310790062,-0.11219088733196259,-0.002917479258030653,-0.11882349103689194,-0.06746114790439606,0.10755792260169983,0.0323542021214962,-0.0013118610950186849,0.004962701816111803,0.04787177965044975,0.05308707430958748,-0.29802364110946655,0.014721264131367207,0.4364512264728546,0.32576945424079895,-0.03967362269759178,-1.6993012428283691,-1.1285053491592407,-0.4994901120662689,0.2094011753797531,0.28941693902015686,0.4457736909389496,-0.48609164357185364,-0.6247479319572449,-0.0056198593229055405,-0.6595306396484375,-0.5614432096481323,-0.06906832009553909,1.1251838207244873,0.053806666284799576,0.003271526889875531,0.0069363974034786224,-0.00346244964748621,-0.024861739948391914,-0.031596116721630096,-0.09330476075410843,-0.004590033553540707,-0.015993868932127953,-0.012796820141375065,-0.015433160588145256,-0.027648473158478737,0.5158907175064087,0.005794364493340254,0.021596355363726616,0.034466762095689774,0.08271443098783493,0.10780375450849533,1.427562952041626,-0.007408819627016783,-0.004732375033199787,-0.005469449795782566,-0.04910335689783096,-0.022816454991698265,0.21097791194915771,-0.016051771119236946,-5.11343423568178e-05,-0.018714210018515587,0.02627442590892315,0.015901807695627213,-0.09797864407300949,0.04229336977005005,0.01253090426325798,0.03631175681948662,0.24637094140052795,0.03618259355425835,0.05024391785264015,0.010035397484898567,-0.005565945524722338,-0.057577528059482574,-0.1577806919813156,-0.05618656426668167,0.6493346691131592,0.004727605730295181,0.08352668583393097,-0.0570225715637207,0.12227356433868408,-0.07381384074687958,0.6000684499740601,-0.04546733200550079,-0.16250765323638916,-0.011813899502158165,-0.09341961145401001,-0.1977258175611496,0.05033628270030022,-0.2663002908229828,-0.159903421998024,0.3590438961982727,0.5924330353736877,0.06685205549001694,0.04118391126394272,-0.1366717666387558,0.297631174325943,-0.60859614610672,1.0965977907180786,0.1874314844608307,0.5117967128753662,0.5660784244537354,0.4295838177204132,0.04193383827805519,-0.0389934666454792,0.46223950386047363,0.3716811537742615,0.02173561230301857,-0.011683081276714802,-0.013934546150267124,0.015087212435901165,0.31437045335769653,0.062456127256155014,-0.016829850152134895,0.008825213648378849,0.0006345219444483519,-0.008210624568164349,-0.003608833998441696,-0.09796444326639175,0.03437785804271698,-0.005261693149805069,0.00866518635302782,0.02417300082743168,0.30609458684921265,-0.08855951577425003,-0.03581315651535988,-0.052798520773649216,-0.08206348121166229,-0.0728762298822403,-0.1034587174654007,-0.11308099329471588,-0.0015365828294306993,-0.001105878152884543,-0.011092400178313255,0.05447537451982498,0.07853630185127258,-0.07408352196216583,0.024827824905514717,0.018046114593744278,0.11324261873960495,0.006235020235180855,-0.03252500668168068,0.09739290177822113,-0.08356600999832153,-0.09391365200281143,-0.06979893893003464,-0.15587039291858673,-0.12180761247873306,0.3302159011363983,0.08489082753658295,0.05299636721611023,0.10228516906499863,0.11222922056913376,0.12556885182857513,0.20703096687793732,-0.05657195299863815,-0.04894925281405449,-0.16815386712551117,-0.19917424023151398,-0.2855880558490753,0.14454196393489838,-0.2482771873474121,0.28207555413246155,0.11088288575410843,-0.05319838598370552,0.15400902926921844,-0.04123972728848457,-0.15274854004383087,-0.2612057030200958,-0.5010626912117004,-0.025820661336183548,0.5030035972595215,0.373938649892807,-0.2453678399324417,0.05332070216536522,0.10754568874835968,0.5651609897613525,0.7478283047676086,-0.07124784588813782,-0.0640602856874466,-0.09799350798130035,-0.07967356592416763,-0.026469631120562553,-0.06028497591614723,-0.25351276993751526,-0.019038550555706024,-0.05047394335269928,-0.02508292905986309,-0.02466355822980404,-0.02259279042482376,-0.1719283014535904,0.04694858193397522,0.14163683354854584,0.11723501980304718,0.07953614741563797,0.15853433310985565,-0.08460387587547302,0.020922377705574036,0.03319229185581207,0.046702735126018524,0.0475468635559082,0.04265531525015831,0.12817183136940002,-0.02260640263557434,-0.02248845063149929,-0.0204622820019722,-0.022455452010035515,-0.028122887015342712,0.19421151280403137,0.03496846556663513,0.033880919218063354,0.023491473868489265,0.01747085340321064,0.021813761442899704,-0.4259924292564392,0.06925240159034729,0.10659171640872955,0.1466236263513565,0.16927915811538696,0.20991234481334686,-0.18234783411026,-0.012052837759256363,0.07011430710554123,0.0027318387292325497,0.1267838031053543,-0.012601707130670547,0.06438598036766052,0.015283734537661076,-0.10935758799314499,0.01230553351342678,-0.1027870625257492,-0.15978308022022247,-0.17405055463314056,-0.13065281510353088,-0.15906649827957153,0.13383744657039642,-0.0331067331135273,0.3680422902107239,-0.08524078875780106,0.1649441421031952,0.1356559693813324,0.18095460534095764,-0.19331376254558563,0.14375637471675873,-0.33456528186798096,-0.06046009808778763,0.42948150634765625,0.020883815363049507,-0.1606302708387375,0.47455042600631714,0.5636138916015625,-0.1133272796869278,-0.09285591542720795,-0.09466325491666794,-0.017280273139476776,-0.059079986065626144,-0.13023869693279266,-0.029649900272488594,-0.017171794548630714,-0.008815955370664597,-0.018210245296359062,-0.019653702154755592,-0.3511773645877838,0.12026428431272507,0.11045953631401062,0.12842343747615814,0.04013664647936821,-0.004552086349576712,-0.07113133370876312,-0.003396169515326619,-0.003526130458340049,-0.0009027376654557884,0.004279403481632471,0.0046629952266812325,-0.6036390662193298,-0.010616539046168327,-0.0062166485004127026,-0.006059400271624327,0.0008118138648569584,-0.0009809108451008797,-0.02519061602652073,0.01875360496342182,0.01497569214552641,0.01390110608190298,-0.0047527807764709,-0.002202726434916258,-0.10806921124458313,-0.039316266775131226,-0.03715275973081589,-0.01886630989611149,-0.018334917724132538,0.004838690627366304,-0.25395330786705017,-0.08722501993179321,-0.07174781709909439,-0.10729570686817169,-0.1146303340792656,-0.12490186840295792,-0.21744297444820404,0.1510390192270279,0.12567123770713806,0.17078897356987,0.18175113201141357,0.18375003337860107,0.23855209350585938,-0.24629707634449005,0.44361984729766846,-0.8282177448272705,-0.007491311989724636,-1.7901562452316284,0.07316617667675018,-0.12337455153465271,0.4794836938381195,0.32750290632247925,0.02040175534784794,-1.0138810873031616,0.693752110004425,0.1269834190607071,-0.41313010454177856,0.2201216071844101,-0.1632094830274582,-0.21660839021205902,0.49656587839126587,0.22320257127285004,0.21069839596748352,0.4388349652290344,0.11603756248950958,-0.0459003821015358,0.0931076630949974,-0.044114865362644196,-0.13012740015983582,-0.047237902879714966,-0.04747328534722328,-0.15528209507465363,0.13966965675354004,0.08503945171833038,0.0856136679649353,-0.02674034796655178,-0.0036154836416244507,0.11466705054044724,-0.0112994983792305,0.024665897712111473,-0.16812007129192352,-0.0166204534471035,0.08870159834623337,0.011228532530367374,0.10357552021741867,-0.13916514813899994,-0.2072344720363617,-0.4047522246837616,-0.21477951109409332,0.9793030023574829,-0.27544859051704407,0.03891012445092201,0.13404712080955505,-0.10343141853809357,-0.07135546207427979,0.8972324132919312,-0.46400436758995056,-0.14241202175617218,0.019892843440175056,-0.24874502420425415,-0.4007110297679901,-0.0543973408639431,-0.8519505858421326,-0.006070103961974382,0.11208124458789825,-0.17040768265724182,-0.001770120463334024,0.12548582255840302,-0.13819719851016998,0.10880408436059952,-0.01599908247590065,-0.07427909225225449,0.24217888712882996,0.040386512875556946,-0.1835806518793106,0.2834784984588623,-0.004950245376676321,0.4682333171367645,-0.076776884496212,0.1284429430961609,-0.8936032652854919,-0.2454831302165985,1.171743392944336,0.5427122116088867,-0.07602392137050629,0.41353559494018555,-0.4060755670070648,0.14790724217891693,-0.6251712441444397,-0.518311619758606,0.021131642162799835,0.22592471539974213,-0.05236148089170456,-0.024967296048998833,-0.03567778691649437,0.007385111413896084,-0.15499058365821838,0.12141548097133636,0.564644992351532,-0.012622796930372715,-0.021408846601843834,0.04565823823213577,0.09363946318626404,0.36799755692481995,-0.3434007465839386,-0.037887752056121826,-0.0430142842233181,-0.0684945359826088,-0.08582550287246704,0.2762892544269562,-0.2117728590965271,0.02186042256653309,0.06411784142255783,0.06761620193719864,0.05299428477883339,-0.12474404275417328,-0.01929384097456932,0.012827234342694283,-0.03132479265332222,-0.0829015001654625,-0.05641147494316101,-0.31370946764945984,0.5287273526191711,0.023385103791952133,0.02271195687353611,0.09116629511117935,0.12513506412506104,-0.34993284940719604,0.33117035031318665,-0.030655860900878906,-0.155856654047966,-0.1793835163116455,-0.34897446632385254,0.865932285785675,0.5026437044143677,0.06655413657426834,0.10364822298288345,0.13174641132354736,0.14084437489509583,0.6174524426460266,-0.3140007555484772,-0.13005097210407257,-0.17389455437660217,-0.2713465988636017,-0.3583161234855652,0.005053089000284672,-0.2638244330883026,-0.13543923199176788,-1.1207141876220703,-0.34137463569641113,-0.007569525856524706,0.1794193685054779,0.09662634134292603,-0.09585845470428467,0.09991614520549774,-0.5000784993171692,0.03314725309610367,0.7533939480781555,0.0992106944322586,-0.525373637676239,0.6110748052597046,-0.4485469460487366,-0.09738800674676895,-0.060741327702999115,0.3675680458545685,0.004119493067264557,-0.0557059645652771,0.05896395817399025,-0.029970651492476463,0.12938250601291656,0.47321099042892456,0.10039543360471725,0.06234825402498245,0.09038735926151276,0.09420096129179001,0.149715393781662,-0.0923709124326706,-0.0548182874917984,-0.04990201070904732,-0.06252716481685638,-0.0978737622499466,-0.1086687222123146,-0.21960438787937164,-0.0175026822835207,-0.12027881294488907,-0.1014842763543129,-0.05815522372722626,-0.06804890185594559,0.4446493983268738,0.03600013256072998,0.12887252867221832,-0.013130724430084229,0.04724553972482681,-0.03782491013407707,-0.214931458234787,0.0031748581677675247,0.005757984705269337,0.06383633613586426,0.06829753518104553,-0.06798770278692245,0.04114583507180214,-0.021195579320192337,-0.01134470570832491,0.02087647281587124,0.11126500368118286,0.17063814401626587,-0.1387927234172821,-0.012867333367466927,-0.006890957243740559,-0.06617114692926407,-0.17104552686214447,-0.23593191802501678,0.31077325344085693,0.0034504730720072985,0.039996445178985596,0.033778999000787735,0.05734393000602722,-0.03748913109302521,0.75778728723526,0.1884182095527649,0.5367928147315979,-0.7716675400733948,-0.04890439659357071,-0.06319811195135117,-0.059988852590322495,-0.01881474256515503,0.12300494313240051,0.28700485825538635,0.3171817660331726,0.008895456790924072,0.8441721200942993,-0.41711875796318054,0.10364308208227158,-0.333445280790329,0.5194846987724304,0.09157103300094604,-0.12948830425739288,0.013267945498228073,0.04051864892244339,-0.03716523200273514,0.011398841626942158,0.027585770934820175,-0.048221878707408905,0.02862219512462616,0.052158329635858536,0.0881613940000534,0.037253860384225845,0.026241028681397438,-0.2223404496908188,-0.04313818737864494,-0.055591292679309845,-0.06257142126560211,-0.05742746964097023,-0.07525734603404999,0.33911144733428955,0.012275455519557,-0.03042539581656456,-0.007925750687718391,0.057827264070510864,-0.07966815680265427,0.6672258377075195,0.04272960498929024,0.06830307841300964,0.09997744858264923,0.05424151197075844,0.16871850192546844,-0.260466605424881,-0.010267755016684532,-0.05255662277340889,-0.062267158180475235,-0.012165782041847706,-0.05986500903964043,-0.13903018832206726,-0.022098155692219734,-0.02678784541785717,-0.003825441701337695,0.010544763877987862,-0.06709152460098267,-0.1857987940311432,-0.04294221103191376,-0.01539613027125597,-0.012755073606967926,-0.013135943561792374,0.021911723539233208,0.09626100212335587,0.051820866763591766,0.038091931492090225,0.02579505182802677,0.03746340051293373,0.011800926178693771,-0.21193307638168335,0.453460693359375,0.7528443336486816,0.05371017009019852,0.1372241973876953,-0.42609894275665283,0.009218758903443813,-0.015781830996274948,-0.555611252784729,-0.20129399001598358,0.537861704826355,-0.055084455758333206,-0.31351354718208313,-0.40524810552597046,-0.30513423681259155,-0.17282061278820038,-0.23674216866493225,-0.4027456045150757,0.32384011149406433,-0.009095856919884682,-0.031627364456653595,-0.03901006281375885,-0.03019781969487667,-0.16647282242774963,0.17968399822711945,-0.0058463928289711475,0.02298380620777607,0.008027687668800354,0.012233588844537735,0.12650997936725616,-0.163947194814682,-0.0035792661365121603,0.00033959580468945205,0.007156785111874342,0.009254598058760166,-0.03909006714820862,-0.47103825211524963,-0.021622570231556892,-0.009679748676717281,0.05663466081023216,0.104440838098526,0.074168860912323,0.002259946893900633,-0.028113193809986115,-0.024425901472568512,-0.03428101912140846,-0.0038429696578532457,-0.01085764542222023,-0.08189096301794052,0.04591790586709976,0.053412795066833496,0.03243621811270714,0.014549493789672852,0.0033519126009196043,-0.014369825832545757,-0.023193545639514923,-0.03497377410531044,-0.06274417042732239,-0.03501483052968979,0.07818443328142166,0.13536567986011505,-0.0028110987041145563,-0.011890169233083725,-0.003800434758886695,-0.05783109366893768,-0.1565617471933365,0.00666024349629879,0.01594035141170025,0.015791017562150955,0.003983016591519117,0.053339481353759766,0.10680904984474182,0.5162148475646973,-0.23963257670402527,0.15346086025238037,0.2287348359823227,-0.1588674932718277,0.0402383878827095,-0.07538143545389175,0.043910037726163864,0.2780173122882843,-0.23641495406627655,-0.12945500016212463,0.11150965094566345,-0.1451810598373413,-0.0747596025466919,0.1924731731414795,-0.2534424960613251,-0.039502546191215515,-0.19390712678432465,0.33316001296043396,0.03687255084514618,0.04315990209579468,0.03561830148100853,-0.05260404571890831,-0.01618255488574505,0.22297418117523193,0.000845006201416254,0.008894248865544796,0.009268950670957565,0.09100828319787979,0.07439683377742767,0.08520472049713135,-0.00650170911103487,0.004323045257478952,0.006019263062626123,-0.05272023007273674,-0.06221241131424904,-0.3477771282196045,0.004885457921773195,-0.005625572521239519,-0.01763566955924034,-0.02596401609480381,-0.037726469337940216,0.4004509747028351,0.007470725104212761,0.022311121225357056,0.019332842901349068,0.024514881893992424,0.034133292734622955,0.10582628101110458,-0.005084517411887646,-0.013734987005591393,-0.01590152084827423,-0.016656534746289253,-0.01901114732027054,0.1727522760629654,-0.008915229700505733,0.01958068646490574,-0.011750021949410439,-0.008549678139388561,-0.0646841898560524,-0.05209847167134285,-0.003736221231520176,-0.0010593617334961891,0.008449646644294262,0.004699321463704109,0.0968233272433281,-0.0784970298409462,0.0017030591843649745,-0.003605655627325177,-0.011988835409283638,-0.016871366649866104,-0.0400911383330822,0.14179082214832306,-0.8735880851745605,-1.135890245437622,0.061847951263189316,-0.04396641626954079,-0.06239984184503555,-0.02483871765434742,0.18413648009300232,-0.11062657088041306,-0.2698993384838104,0.10637542605400085,0.8176311254501343,0.11399832367897034,-0.17108242213726044,-0.17613518238067627,-0.3834835886955261,-0.34131088852882385,0.18199750781059265,0.04224516823887825,0.008525756187736988,0.012954840436577797,0.009092200547456741,-0.020149078220129013,-0.021703284233808517,0.37123313546180725,0.0033245827071368694,-0.010068845003843307,-0.003470419906079769,0.010676137171685696,0.009966285899281502,-0.07799261808395386,-0.02028350718319416,0.00024841036065481603,-0.0009859305573627353,-0.0031544542871415615,-0.009139519184827805,-0.09852346777915955,0.010867447592318058,0.005305865779519081,0.04115800932049751,-0.015693694353103638,-0.030665569007396698,0.25227320194244385,0.003130583558231592,0.00521059799939394,-0.007124722469598055,0.020888689905405045,0.024768302217125893,0.05622663348913193,-0.005194131284952164,-0.009328793734312057,-0.013643484562635422,-0.016326209530234337,-0.03226810321211815,0.03944343701004982,0.0389588326215744,0.04681675508618355,0.043385110795497894,0.03500555083155632,0.04923506826162338,0.05801592394709587,-0.05712202936410904,-0.0396241769194603,-0.016499141231179237,-0.038669783622026443,-0.03607359528541565,0.05942035838961601,0.025229543447494507,0.059464678168296814,0.09361175447702408,0.032259758561849594,0.12528350949287415,0.010620641522109509,0.23553474247455597,0.24705752730369568,-0.057507287710905075,-0.2734053432941437,-0.08083248138427734,-0.001283046673052013,0.013639415614306927,-0.12402080744504929,0.04299967363476753,-0.1867964267730713,0.06075621768832207,-0.08330321311950684,-0.24819079041481018,-0.2665539085865021,-0.0044696154072880745,0.27659186720848083,-0.05367317050695419,0.004631366115063429,0.11677107214927673,-0.020927120000123978,0.005350376944988966,-0.01779128797352314,-0.01540523674339056,0.02467704750597477,0.09630148112773895,-0.02941366843879223,-0.05838651582598686,0.1516355723142624,-0.09913580864667892,-0.23504561185836792,-0.40362435579299927,0.4817657768726349,-0.042788781225681305,-0.08072315901517868,0.09871020168066025,0.04929126426577568,-0.09043263643980026,0.11221795529127121,0.019052604213356972,-0.04472583532333374,-0.18263711035251617,0.03837401047348976,0.22935545444488525,-0.25051990151405334,-0.7141103744506836,1.2083024978637695,-0.09186369180679321,-0.3969949185848236,0.04867040365934372,-0.053310833871364594,-0.023424480110406876,-0.029322044923901558,0.0004231384373269975,0.055288054049015045,-0.08657446503639221,0.038213472813367844,0.24422520399093628,0.12130499631166458,-0.2142631709575653,-0.4106702208518982,0.9428200125694275,-0.3091413974761963,-0.13009001314640045,-0.2408180981874466,-0.16184769570827484,-0.280193954706192,-0.17928658425807953,-0.24189938604831696,-0.26765871047973633,-0.29883915185928345,-0.14834056794643402,-0.24894657731056213,-0.2229035198688507,-0.24538859724998474,-0.22098740935325623,-0.011973407119512558,0.25837838649749756,0.196205273270607,0.02916819043457508,0.09555654227733612,0.17595531046390533,0.06627000123262405,0.3356044590473175,0.19422540068626404,0.12447579950094223,0.10158778727054596,0.2563285529613495,-0.19959935545921326,-0.23689793050289154,-0.4518614113330841,-0.1707121729850769,0.1507294923067093,0.024721873924136162,-0.05257461592555046,-0.04566597566008568,0.07953192293643951,-0.19231347739696503,-0.20487868785858154,-0.12012122571468353,-0.020308122038841248,-0.15225820243358612,-0.11899331212043762,-0.18372802436351776,-0.28013691306114197,-0.17646931111812592,-0.08212611079216003,0.024081028997898102,-0.26832762360572815,-0.06515756994485855,-0.0031116020400077105,-0.0223239716142416,-0.06992009282112122,-0.1343315988779068,-0.06229550763964653,-0.04129377380013466,-0.14038269221782684,-0.14414428174495697,-0.42104244232177734,-0.05637054890394211,0.06661121547222137,0.23869118094444275,-0.17195042967796326,0.06805259734392166,-0.014847194775938988,-0.055434126406908035,0.04332742467522621,0.05391331762075424,0.013937322422862053,0.0222955122590065,-0.16951873898506165,-0.016826052218675613,0.006880024913698435,0.3792744576931,0.23499354720115662,0.39103904366493225,-0.1537892073392868,-0.4337846636772156,0.3257618844509125,-0.04916395619511604,0.003285149112343788,-0.15031547844409943,0.11889821290969849,-0.060816649347543716,0.034403301775455475,-0.07730936259031296,-0.012278947047889233,-0.1721891611814499,0.12486675381660461,-0.1419275999069214,0.10888505727052689,-0.23043538630008698,-0.040740013122558594,-0.034266285598278046,-0.13113552331924438,0.29742947220802307,0.08683555573225021,-0.013972983695566654,-0.07198453694581985,0.03940356895327568,0.5203481316566467,0.024257495999336243,-0.8021571636199951,0.2803827226161957,0.035597674548625946,0.5389615297317505,-0.23849692940711975,-0.2563891112804413,-0.2029837667942047,-0.31351134181022644,-0.16104756295681,0.3971366584300995,0.016475288197398186,-0.0008234420674853027,-0.02622939459979534,0.016744505614042282,-0.012147292494773865,0.0033512553200125694,0.004112082067877054,-0.01324688084423542,9.709583537187427e-05,-0.03470173850655556,-0.01774098537862301,-0.06083907559514046,0.009389967657625675,0.013845867477357388,-0.10006430745124817,0.03647293895483017,-0.012736267410218716,0.03365107253193855,0.05056565999984741,0.005586228333413601,0.03029199317097664,0.011881416663527489,0.040669895708560944,0.052685197442770004,0.041046448051929474,0.021163295954465866,0.02710140310227871,0.03019053116440773,-0.02851930446922779,-0.13329556584358215,0.0027163017075508833,0.015057926066219807,0.0020423654932528734,0.008409714326262474,0.02502409555017948,0.014223138801753521,0.03555437922477722,0.023225774988532066,0.0038208074402064085,-0.0032062584068626165,0.0515938401222229,0.03221053257584572,0.045749273151159286,0.07202927768230438,-0.09773340821266174,0.04837387800216675,0.06287939101457596,0.05319220572710037,0.05480837821960449,0.06602805852890015,0.11760835349559784,0.10141044855117798,0.053925126791000366,0.08096885681152344,0.1013181284070015,0.02691732905805111,0.05025221407413483,0.03110300563275814,0.061566099524497986,0.08840017765760422,7.799205195624381e-05,-0.04943158105015755,0.05694477632641792,0.11531603336334229,-0.019520949572324753,0.1443488597869873,-0.007821078412234783,0.0001889225241029635,0.042299482971429825,0.06668157875537872,-0.08479355275630951,-0.04083821550011635,0.028073836117982864,0.023871831595897675,-0.11344972252845764,0.061570387333631516,0.03675887733697891,0.1585799753665924,0.18403585255146027,0.06240952014923096,0.19874626398086548,0.03800773620605469,0.0933331847190857,0.08777829259634018,0.08697604387998581,-0.015651216730475426,0.08314987272024155,0.057178471237421036,0.11062215268611908,0.05509348586201668,0.022726131603121758,0.03266435116529465,0.033533975481987,0.03493165224790573,0.04286493360996246,0.016152018681168556,0.04344579949975014,0.03563065826892853,0.015785492956638336,0.026406727731227875,0.06062231585383415,0.06485946476459503,0.043151598423719406,0.050911564379930496,0.015451552346348763,0.03549690172076225,0.05088750272989273,-0.027349434792995453,-0.09481525421142578,-0.030177200213074684,-0.02965369075536728,-0.022627202793955803,-0.003354614367708564,-0.014636905863881111,-0.020889241248369217,-0.01570267416536808,-0.003219792153686285,-0.023585427552461624,-0.043212663382291794,0.10934288799762726,0.0917765274643898,0.07610087841749191,0.012557914480566978,-0.04219266027212143,0.0049771154299378395,0.025159988552331924,0.028964657336473465,0.05277736112475395,0.0397719070315361,0.057219017297029495,0.06056792661547661,0.014723065309226513,0.05851781740784645,0.056424565613269806,0.07435896247625351,-0.18449071049690247,-0.035609833896160126,-0.04778815805912018,-0.0732416957616806,-0.005027341656386852,-0.0013593030162155628,-0.270332008600235,-0.14263848960399628,-0.02811795100569725,-0.10275085270404816,-0.0133814150467515,0.03416400030255318,0.09617643803358078,0.15797924995422363,0.15889069437980652,0.2112634927034378,0.04611288383603096,0.40540391206741333,-0.08628278970718384,0.011980938725173473,0.08813144266605377,-0.41938766837120056,-0.29830509424209595,0.015893299132585526,-0.2198413908481598,-0.15058426558971405,-0.01969126984477043,-0.2827397584915161,-0.35222676396369934,0.18141473829746246,0.10695820301771164,0.146711066365242,0.1891384869813919,0.0777631402015686,-0.14241309463977814,0.35994404554367065,-0.28465232253074646,-0.5671992897987366,-0.3957567512989044,-0.41863617300987244,-0.01879252679646015,-0.1143384724855423,0.062392834573984146,-0.29053643345832825,-0.14200559258460999,0.014399733394384384,-0.257108598947525,0.2455550581216812,-0.1815246194601059,-0.2314339429140091,-0.25150808691978455,0.043288394808769226,-0.04370174929499626,-0.10847541689872742,0.14183050394058228,-0.1301184445619583,0.04291300103068352,-0.2157861739397049,-0.03305099532008171,-0.1644265204668045,-0.10071855038404465,-0.09435813128948212,0.2507616877555847,-0.18675914406776428,-0.2533092200756073,0.09357570111751556,0.008405630476772785,0.06813406199216843,-0.029835499823093414,0.010729504749178886,-0.1347542703151703,-0.18454661965370178,0.6333887577056885,5.0965536502189934e-05,-0.3478606045246124,-0.08418579399585724,-0.008718523196876049,0.14542262256145477,0.042300786823034286,-0.16424667835235596,-0.5511009693145752,-0.19360235333442688,0.10408012568950653,0.15887300670146942,-0.17253054678440094,0.1886029839515686,0.7175687551498413,-0.5467286705970764,-0.2683773636817932,0.30719029903411865,-0.0615096390247345,-0.03932473808526993,0.15875838696956635,0.4289418160915375,0.19028863310813904,0.65216064453125,0.1750105619430542,0.3640154004096985,0.39435821771621704,0.5780623555183411,0.5697831511497498,-0.935206413269043,-0.22395513951778412,-0.2965984344482422,-0.3235781490802765,-0.15262652933597565,-0.6645972728729248,-1.1787999868392944,-0.11484837532043457,-0.22738811373710632,-0.3196169435977936,-0.20902787148952484,-0.5494746565818787,0.2910628318786621,0.07714668661355972,0.08774682879447937,0.011916848830878735,-0.20055003464221954,-0.570881187915802,0.1710895299911499,-0.09631580114364624,-0.13093259930610657,-0.27389010787010193,-0.23299428820610046,-0.30536502599716187,0.13313409686088562,0.041487302631139755,0.1412225216627121,-0.049264367669820786,-0.07115425914525986,0.35950320959091187,-0.3035108745098114,-0.058972034603357315,-0.22709843516349792,-0.22179725766181946,0.12710422277450562,0.7397873997688293,-0.27342694997787476,0.0009143438073806465,0.095340795814991,-0.03785588964819908,-0.07728809863328934,0.010947511531412601,-0.2743239402770996,-0.3887166678905487,0.39375001192092896,0.3417271077632904,-0.04038560390472412,-0.125326469540596,-0.024664979428052902,0.46760469675064087,-0.1496170312166214,0.588538408279419,0.03321888670325279,-0.3291938602924347,0.37518811225891113,-0.3767004609107971,-0.319230854511261,-0.3764953911304474,0.19711507856845856,0.39859095215797424,0.40731364488601685,-0.055283959954977036,-0.07154501229524612,-0.07714010030031204,-0.029069647192955017,-0.03549933806061745,-0.03921472281217575,-0.08110009133815765,-0.09921977669000626,-0.06588873267173767,-0.00874701514840126,-0.02395051158964634,0.04131264612078667,0.02509016916155815,-0.004444450605660677,-0.030755873769521713,0.02426789700984955,-0.009673720225691795,0.2914622724056244,0.08662573993206024,0.05538368970155716,0.09788325428962708,0.15383446216583252,0.09626111388206482,0.27254340052604675,-0.026005547493696213,-0.01205542404204607,0.027181316167116165,0.02431759610772133,-0.21025554835796356,-0.18112504482269287,0.027039669454097748,0.000990824424661696,-0.01803252473473549,0.014168902300298214,-0.02584715187549591,0.2571081519126892,-0.01711350306868553,0.00841012503951788,0.10221803188323975,0.00966576300561428,0.07830812782049179,0.3807997405529022,0.03704686090350151,-0.017601337283849716,-0.003940506372600794,0.020981041714549065,0.05754599720239639,-0.2199850082397461,-0.06283552944660187,-0.00429944833740592,0.03958916664123535,-0.010671376250684261,-0.02239391766488552,-0.19780974090099335,0.3181021511554718,0.0768326073884964,0.06369305402040482,-0.10917190462350845,-0.029116801917552948,-0.013161023147404194,0.09267628937959671,-0.29554057121276855,0.8077573776245117,-0.4098794460296631,0.007740597240626812,-0.07689836621284485,-0.16578061878681183,-0.10010893642902374,0.018450714647769928,0.07148335874080658,0.09907221049070358,0.27514487504959106,-0.06172871217131615,-0.0533699095249176,-0.021271539852023125,0.030575281009078026,0.16388973593711853,1.4228248596191406,0.13581490516662598,0.1910342127084732,0.1758120208978653,0.25617334246635437,0.31489524245262146,-0.4390117824077606,-0.16921073198318481,-0.17641761898994446,-0.12927892804145813,-0.044323697686195374,-0.017650077119469643,-1.2018539905548096,0.01031437236815691,0.06713881343603134,0.05496108904480934,-0.020366808399558067,0.07997321337461472,0.008208290673792362,0.11988162994384766,0.16176903247833252,0.10967360436916351,0.0942314937710762,0.0911334753036499,-0.15808863937854767,0.12820036709308624,0.21304050087928772,0.12498459219932556,0.07963148504495621,0.10702642798423767,-0.017755452543497086,-0.024252140894532204,-0.04536126181483269,-0.09975229203701019,-0.04637888818979263,0.0007937881164252758,-0.1522001028060913,-0.17598368227481842,-0.2325894683599472,-0.16595472395420074,-0.13925619423389435,-0.2583964467048645,0.3576717972755432,-0.08668594062328339,-0.18543614447116852,-0.25013506412506104,-0.0718650221824646,-0.1385127156972885,-0.06895385682582855,-0.11295253783464432,-0.22346004843711853,0.06481673568487167,-0.014096525497734547,-0.01302328146994114,-0.04613751918077469,-0.34799596667289734,-0.30299726128578186,0.6286044716835022,-0.028366006910800934,0.3212433457374573,-0.11496155709028244,0.27344584465026855,0.5051677227020264,-0.14896973967552185,-0.11166708916425705,0.44555598497390747,-0.31588420271873474,0.010997221805155277,0.06350338459014893,0.08985956758260727,0.03496643528342247,0.07927647233009338,-0.06934804469347,-0.011377274990081787,-0.04737645760178566,-0.013776984997093678,-0.020197805017232895,-0.026736970990896225,-0.05912245810031891,-0.06375157088041306,-0.04440174251794815,-0.030695609748363495,-0.03435756266117096,0.015220890752971172,-0.09572485834360123,0.0034903204068541527,0.003009287640452385,-0.09233829379081726,-0.24054943025112152,-0.2173760086297989,0.25210896134376526,0.008132237941026688,-0.002755772555246949,0.14436408877372742,0.19299598038196564,0.1805499941110611,-0.257549911737442,0.01984027773141861,0.06369653344154358,0.10219720751047134,0.12960593402385712,0.1546420454978943,0.1788783222436905,0.0016499656485393643,-0.017936771735548973,0.1005791574716568,0.2308839112520218,0.2944434881210327,-0.3642231822013855,-0.026031382381916046,-0.0025551975704729557,-0.14532005786895752,-0.2105337530374527,-0.28946036100387573,0.3800640106201172,0.010072675533592701,0.005353590007871389,-0.07416246086359024,-0.14278213679790497,-0.21573755145072937,-0.28234994411468506,-0.16118672490119934,0.014487992972135544,-0.05680769681930542,-0.06822387129068375,-0.02464853599667549,-0.06719184666872025,0.41061320900917053,-0.6594520807266235,0.7294791340827942,-0.31232622265815735,0.24856042861938477,-0.2613218128681183,0.3393109142780304,0.06359545141458511,0.31278178095817566,0.026943586766719818,0.5614361763000488,-0.2057648003101349,-0.0020722702611237764,-0.0277978777885437,-0.012932398356497288,0.008872929960489273,-0.025658680126070976,0.035182639956474304,0.03568240627646446,0.03946183994412422,0.004069326911121607,0.002767702331766486,0.003031383967027068,-0.1358041614294052,-0.006810374557971954,-0.024828944355249405,-0.037911538034677505,0.020650608465075493,-0.03280753642320633,-0.22495588660240173,0.05927542224526405,0.12832745909690857,0.17801761627197266,0.18777599930763245,0.01090750191360712,-0.09484050422906876,-0.05925874412059784,-0.13091011345386505,-0.16264210641384125,-0.15071910619735718,0.05906631052494049,-0.011673892848193645,0.024170326068997383,0.05399371683597565,0.09083286672830582,0.054379578679800034,0.10662057250738144,0.11340412497520447,-0.0497259646654129,-0.1241866797208786,-0.16044922173023224,-0.1847536712884903,-0.049365267157554626,0.08497043699026108,0.056536536663770676,0.11759120970964432,0.11986636370420456,0.1461804211139679,-0.098526731133461,0.07259019464254379,-0.023539764806628227,-0.02051515132188797,-0.03068922646343708,-0.027660734951496124,-0.06144482269883156,-0.2521587312221527,0.35881102085113525,-0.2130783647298813,0.22810888290405273,-0.06642638891935349,-0.09945866465568542,-0.04524729773402214,-0.04245645925402641,0.5652233362197876,-0.5039051175117493,0.47197777032852173,-0.35697370767593384,0.07873565703630447,0.21157735586166382,-0.043793097138404846,0.8283087611198425,-0.024839244782924652,0.0455397292971611,-0.019490456208586693,-0.0715368464589119,-0.0510375089943409,-0.019772937521338463,0.0137508325278759,0.016414057463407516,0.043989088386297226,0.05038897693157196,0.06291715800762177,-0.01726161129772663,-0.03209299221634865,-0.021721987053751945,0.02533969283103943,0.08739315718412399,0.03208833932876587,0.034339483827352524,0.04707088693976402,0.036213330924510956,-0.04344917833805084,-0.017684850841760635,-0.038455378264188766,-0.014506484381854534,0.014304330572485924,0.05231671780347824,-0.20687203109264374,0.014570675790309906,0.017515016719698906,-0.017555370926856995,-0.032448697835206985,-0.06061139702796936,-0.1424998939037323,0.02163146249949932,0.03479848802089691,0.019828252494335175,0.02387341670691967,0.03520479053258896,0.04442873224616051,0.029617972671985626,0.03467591106891632,0.022581662982702255,0.020057277753949165,-0.08465860784053802,0.059704359620809555,-0.017666852101683617,-0.0372779406607151,-0.039762526750564575,-0.01557623315602541,0.03413999825716019,0.0045580388978123665,-0.017369253560900688,0.006962924730032682,0.02712099999189377,-0.003339731367304921,0.02265390194952488,-0.09154517948627472,0.27380165457725525,0.07838261127471924,0.297179251909256,-0.05813518911600113,-0.06224685534834862,-0.0323975495994091,3.647600922114464e-39,1.5914623730752485e-38,-1.8101946937477165e-38,1.8802732095590613e-38,3.577606063821439e-39,-9.941958969362534e-39,-2.976865208269997e-39,1.2640247444223222e-38,1.517928955900111e-38,-8.856403877616314e-39,-1.2455626371548427e-38,-1.0905184909068591e-39,-0.0010111426236107945,0.0013456344604492188,0.0014584034215658903,0.008846649900078773,0.0023680110462009907,0.01597672700881958,0.0034425498452037573,0.009829085320234299,-0.03854868933558464,-0.03667725622653961,0.025600014254450798,0.00394115736708045,-0.011669151484966278,-0.009593714959919453,-0.002363120438531041,-0.00010618616215651855,0.0018029942875728011,0.006322918459773064,0.011647197417914867,0.016852451488375664,0.02103777416050434,0.024766521528363228,0.02468014881014824,0.02092934213578701,0.010820258408784866,-0.005433024372905493,-0.031378988176584244,-0.06710798293352127,-0.09393595159053802,-0.08821891993284225,-0.056278590112924576,-0.02035002037882805,0.004103436134755611,0.004522544331848621,0.007833419367671013,0.00958859920501709,0.013185079209506512,0.01373069267719984,0.011372942477464676,0.01146150752902031,0.012262213043868542,0.012696546502411366,0.012608535587787628,0.030768316239118576,0.0532870814204216,0.05562427267432213,0.030965980142354965,0.0063915373757481575,0.2732379734516144,0.00565572502091527],"sample_rate":48000.0}},{"max_value":1.0,"model":{"version":"0.7.0","metadata":{"date":{"year":2026,"month":5,"day":16,"hour":20,"minute":45,"second":26},"loudness":-19.9024600982666,"gain":0.023187210561491884},"architecture":"WaveNet","config":{"layers":[{"input_size":1,"condition_size":1,"head":{"out_channels":1,"kernel_size":16,"bias":true},"channels":8,"kernel_sizes":[6,6,6,6,6,6,6,6,6,6,6,6,6,6,15,15,6,6,6,6,6,6,6],"dilations":[1,3,7,17,41,101,239,1,3,7,17,41,101,239,1,13,1,3,7,17,41,101,239],"activation":[{"type":"LeakyReLU","negative_slope":0.01},{"type":"LeakyReLU","negative_slope":0.01},{"type":"LeakyReLU","negative_slope":0.01},{"type":"LeakyReLU","negative_slope":0.01},{"type":"LeakyReLU","negative_slope":0.01},{"type":"LeakyReLU","negative_slope":0.01},{"type":"LeakyReLU","negative_slope":0.01},{"type":"LeakyReLU","negative_slope":0.01},{"type":"LeakyReLU","negative_slope":0.01},{"type":"LeakyReLU","negative_slope":0.01},{"type":"LeakyReLU","negative_slope":0.01},{"type":"LeakyReLU","negative_slope":0.01},{"type":"LeakyReLU","negative_slope":0.01},{"type":"LeakyReLU","negative_slope":0.01},{"type":"LeakyReLU","negative_slope":0.01},{"type":"LeakyReLU","negative_slope":0.01},{"type":"LeakyReLU","negative_slope":0.01},{"type":"LeakyReLU","negative_slope":0.01},{"type":"LeakyReLU","negative_slope":0.01},{"type":"LeakyReLU","negative_slope":0.01},{"type":"LeakyReLU","negative_slope":0.01},{"type":"LeakyReLU","negative_slope":0.01},{"type":"LeakyReLU","negative_slope":0.01}],"bottleneck":8,"head1x1":{"active":false,"out_channels":1,"groups":1},"layer1x1":{"active":true,"groups":1},"groups_input":1,"groups_input_mixin":1,"conv_pre_film":{"active":false,"shift":true,"groups":1},"conv_post_film":{"active":false,"shift":true,"groups":1},"input_mixin_pre_film":{"active":false,"shift":true,"groups":1},"input_mixin_post_film":{"active":false,"shift":true,"groups":1},"activation_pre_film":{"active":false,"shift":true,"groups":1},"activation_post_film":{"active":false,"shift":true,"groups":1},"layer1x1_post_film":{"active":false,"shift":true,"groups":1},"head1x1_post_film":{"active":false,"shift":true,"groups":1},"gating_mode":["none","none","none","none","none","none","none","none","none","none","none","none","none","none","none","none","none","none","none","none","none","none","none"],"secondary_activation":[null,null,null,null,null,null,null,null,null,null,null,null,null,null,null,null,null,null,null,null,null,null,null],"slimmable":null}],"head":null,"head_scale":0.005655724950082893},"weights":[2.3177783489227295,2.693542003631592,2.940192699432373,-2.149463415145874,2.14886474609375,1.8195478916168213,2.783390760421753,-2.8546812534332275,0.007218511775135994,-0.09061839431524277,-0.14448946714401245,-0.3250066637992859,-0.05601153150200844,0.398246169090271,-0.006532985717058182,-0.10748541355133057,-0.18612173199653625,-0.42226845026016235,-0.06961892545223236,0.4968482553958893,-0.0020419203210622072,-0.12565769255161285,-0.22675861418247223,-0.43777787685394287,-0.06265287846326828,0.5257070064544678,-0.006988808047026396,0.09003244340419769,0.15493257343769073,0.3297842741012573,0.04738824442028999,-0.4155782461166382,0.005473185330629349,-0.076032854616642,-0.1318885236978531,-0.29276931285858154,-0.048423536121845245,0.3604706823825836,0.0027394508942961693,-0.06847549229860306,-0.11369490623474121,-0.2598254978656769,-0.043550509959459305,0.3132503926753998,0.014204832725226879,-0.10673468559980392,-0.20197169482707977,-0.4099951684474945,-0.07939555495977402,0.5332567691802979,-0.006807492580264807,0.14468754827976227,0.22324268519878387,0.45997434854507446,0.06705240905284882,-0.5491451621055603,-0.02073063515126705,-0.054740600287914276,-0.10024617612361908,-0.07550561428070068,0.07091227918863297,0.23648254573345184,-0.0583309568464756,-0.0955415591597557,-0.11116223782300949,-0.07846813648939133,0.11718092858791351,0.34022781252861023,-0.05561872199177742,-0.10938237607479095,-0.10101599991321564,-0.052581481635570526,0.13635210692882538,0.31761157512664795,0.01913147047162056,0.054766695946455,0.0842791274189949,0.060743603855371475,-0.0824037492275238,-0.2453506737947464,-0.01245899684727192,-0.04249061271548271,-0.08690816909074783,-0.07560808956623077,0.05960029736161232,0.2144540250301361,-0.011394514702260494,-0.03474564477801323,-0.07343275845050812,-0.0665208250284195,0.05161213129758835,0.19745057821273804,-0.05759406089782715,-0.07238813489675522,-0.11327492445707321,-0.04040340334177017,0.13551074266433716,0.3092305064201355,0.04121159762144089,0.11213060468435287,0.10053171217441559,0.05351503565907478,-0.12427080422639847,-0.36375996470451355,0.0795828327536583,0.2025136798620224,0.15832418203353882,0.25930869579315186,-0.17366686463356018,-0.8217437863349915,0.15149246156215668,0.17019852995872498,0.12411955744028091,0.27229657769203186,-0.17307209968566895,-0.8896636962890625,0.1288076788187027,0.2703597843647003,0.2220173478126526,0.33378809690475464,-0.18597851693630219,-0.8539254665374756,-0.11352527886629105,-0.14805898070335388,-0.12818112969398499,-0.2735067307949066,0.16557198762893677,0.8037914037704468,0.08608637750148773,0.15762832760810852,0.13574184477329254,0.2511102557182312,-0.14223156869411469,-0.7150948643684387,0.0867278128862381,0.14884108304977417,0.13082051277160645,0.21585722267627716,-0.13200952112674713,-0.6996502876281738,0.11113806813955307,0.2547950744628906,0.16908963024616241,0.2791164517402649,-0.19190043210983276,-0.9340983033180237,-0.12673324346542358,-0.16742606461048126,-0.14918290078639984,-0.3436252474784851,0.1641133576631546,0.8884203433990479,-0.19027668237686157,0.03572125360369682,0.3955097496509552,0.5189452767372131,0.013971159234642982,-0.8020564317703247,-0.23795215785503387,0.020395953208208084,0.4710332155227661,0.5844601988792419,0.020855721086263657,-0.8688747882843018,-0.25900042057037354,0.04586591199040413,0.4925500154495239,0.6294117569923401,0.037924326956272125,-0.8788384795188904,0.1935616284608841,-0.03190573677420616,-0.388621985912323,-0.5277256965637207,-0.021592792123556137,0.788760781288147,-0.1776927262544632,0.038883425295352936,0.3619367778301239,0.48743849992752075,0.00833659153431654,-0.7443996667861938,-0.15090328454971313,0.037882182747125626,0.3250986635684967,0.4428741931915283,0.004964679479598999,-0.6730924248695374,-0.24352049827575684,0.03379253298044205,0.46609029173851013,0.6229920387268066,0.030546817928552628,-0.864464521408081,0.2606233060359955,-0.022487863898277283,-0.4981115162372589,-0.6099510192871094,-0.021786488592624664,0.9061778783798218,-0.03561314567923546,-0.04533255845308304,-0.03856760635972023,-0.07270044833421707,0.04149705916643143,0.21466267108917236,-0.05422016233205795,-0.06582044064998627,-0.046969689428806305,-0.0766395702958107,0.04141436517238617,0.2822783887386322,-0.05167350918054581,-0.06693299114704132,-0.06328857690095901,-0.106843501329422,0.046450793743133545,0.3298290967941284,0.034727178514003754,0.04968470707535744,0.036982204765081406,0.07489002496004105,-0.04471961781382561,-0.2192399948835373,-0.03227555379271507,-0.039509210735559464,-0.03260275721549988,-0.06517010182142258,0.03430027887225151,0.19130468368530273,-0.02848542295396328,-0.03550918027758598,-0.026505861431360245,-0.05589862912893295,0.03371787071228027,0.17358741164207458,-0.04119734466075897,-0.061925895512104034,-0.03884124755859375,-0.0763176903128624,0.05402396619319916,0.28906989097595215,0.0540018305182457,0.06337985396385193,0.048398345708847046,0.103101447224617,-0.07318540662527084,-0.30375349521636963,0.12560254335403442,0.29625213146209717,0.24175837635993958,0.42755311727523804,-0.21986983716487885,-1.1784136295318604,0.1340387761592865,0.24117815494537354,0.1860211342573166,0.4128420352935791,-0.2703090012073517,-1.2847192287445068,0.15796402096748352,0.24925829470157623,0.2264360785484314,0.38147053122520447,-0.1794075220823288,-1.3170167207717896,-0.10317571461200714,-0.26697587966918945,-0.246612548828125,-0.3334890902042389,0.2013435810804367,1.1068283319473267,0.13295376300811768,0.24955248832702637,0.21613328158855438,0.3592183589935303,-0.1605629324913025,-1.0964690446853638,0.14195653796195984,0.24553434550762177,0.17050771415233612,0.3382112979888916,-0.15896786749362946,-1.0020030736923218,0.17438410222530365,0.3605237901210785,0.25794583559036255,0.47802063822746277,-0.2512035667896271,-1.2986831665039062,-0.1910838633775711,-0.35336190462112427,-0.20362155139446259,-0.48327693343162537,0.18023133277893066,1.300706386566162,-0.013930167071521282,-0.011679287999868393,-0.014698168262839317,-0.007841796614229679,-0.005435292609035969,-0.0004335256526246667,-0.01472634170204401,-0.012219774536788464,-0.01512039266526699,-0.008114785887300968,-0.005619065836071968,-0.0006565280491486192,-0.015004697255790234,-0.012396788224577904,-0.015340430662035942,-0.00821955967694521,-0.005770090501755476,-0.0007858049939386547,0.013768426142632961,0.011473272927105427,0.014622281305491924,0.007684706710278988,0.005361936520785093,0.00048391593736596406,-0.01355494000017643,-0.011410398408770561,-0.014483543112874031,-0.007579803932458162,-0.0052481661550700665,-0.000304781278828159,-0.013002261519432068,-0.010915625840425491,-0.013856667093932629,-0.007161987479776144,-0.004827470052987337,4.471734064281918e-05,-0.01478955615311861,-0.012256425805389881,-0.015156845562160015,-0.008105559274554253,-0.005575746763497591,-0.0006341583793982863,0.0148970577865839,0.012431277893483639,0.015194924548268318,0.008215164765715599,0.005684589967131615,0.0005772007280029356,0.018901588395237923,-0.24071654677391052,-0.47619742155075073,-0.6308321356773376,0.10308639705181122,1.2962995767593384,0.035988084971904755,-0.26854822039604187,-0.5448590517044067,-0.6603929400444031,0.16646338999271393,1.4785854816436768,-0.0153252724558115,-0.22703994810581207,-0.5080568790435791,-0.680996835231781,0.1671639233827591,1.5284559726715088,-0.03147511929273605,0.23372001945972443,0.4263036549091339,0.6028993129730225,-0.0802675113081932,-1.3525491952896118,-0.02119554579257965,-0.214705690741539,-0.47158491611480713,-0.5472294688224792,0.10086788982152939,1.236633539199829,0.008066882379353046,-0.20245546102523804,-0.4076707661151886,-0.5200008749961853,0.07779289036989212,1.1527544260025024,-0.023737214505672455,-0.21368563175201416,-0.45642566680908203,-0.5844439268112183,0.07816001772880554,1.3995981216430664,0.03630344569683075,0.2667580544948578,0.4558057188987732,0.6387724280357361,-0.10240866243839264,-1.4315534830093384,1.1078599691390991,-0.24303613603115082,0.9459593296051025,0.6607843637466431,-0.18551619350910187,0.8520312905311584,-0.009933782741427422,0.8428720235824585,0.26273971796035767,0.10509324073791504,-0.6514445543289185,-0.5560030937194824,0.13303056359291077,-1.0496243238449097,0.0005989789497107267,0.8543708324432373,-0.1511605829000473,0.2499527484178543,-0.16821187734603882,0.031945083290338516,0.10068046301603317,-0.1146804541349411,-0.01694994792342186,0.04978141561150551,-0.03760494664311409,0.4588419795036316,-0.24294283986091614,-0.07737606763839722,0.5147385597229004,-0.587532639503479,-0.0041054594330489635,0.59555983543396,0.0579720214009285,0.33454903960227966,-0.04447396844625473,-0.41038984060287476,0.40944749116897583,-0.3105848729610443,-0.05415227264165878,0.6684852838516235,-0.36998724937438965,0.18759393692016602,0.4405648112297058,0.039949532598257065,-0.030551517382264137,0.5081707239151001,0.0002898600068874657,-0.39292213320732117,-0.11213517189025879,-0.07676620781421661,-0.21807052195072174,0.21265766024589539,-0.09442076832056046,0.213322713971138,-0.05097416043281555,-0.6400296688079834,0.563547670841217,-0.3812808692455292,-0.3233817517757416,-0.7555577158927917,-0.13289369642734528,0.30975717306137085,0.009820912964642048,-0.054162878543138504,-0.28180646896362305,0.040633950382471085,0.005915874615311623,-0.22024819254875183,-0.050274088978767395,0.10470859706401825,0.047790005803108215,-0.0048610372468829155,-0.3930080533027649,-0.4285426437854767,0.43672195076942444,0.4150385558605194,-0.5100897550582886,0.5210621953010559,0.02209252119064331,-0.5438908338546753,-0.3036344647407532,0.32170718908309937,-0.05810047686100006,-0.028074774891138077,0.35189735889434814,0.08149726688861847,0.3373030424118042,-0.08083244413137436,0.04214419424533844,0.011073094792664051,0.03329906612634659,0.04154614359140396,-0.06830660998821259,-0.0018860278651118279,0.012837373651564121,0.02140953578054905,0.019386611878871918,0.012867284938693047,-0.23323020339012146,0.18687747418880463,0.04828496649861336,0.023481890559196472,0.054647501558065414,-0.04472162947058678,-0.3368378281593323,0.22158165276050568,0.018306350335478783,-0.003609593492001295,-0.03698836266994476,-0.10376670211553574,0.18112656474113464,-0.023365309461951256,0.016567975282669067,0.03530585765838623,-0.0048906635493040085,0.058712586760520935,0.11920980364084244,-0.312238484621048,0.04073166847229004,0.047680746763944626,0.05471787974238396,0.049967896193265915,0.015422276221215725,0.0013841739855706692,0.01054839976131916,0.009082747623324394,-0.00674658315256238,-0.03271980956196785,-0.10953453183174133,0.1077936440706253,-0.013656742870807648,0.0019707772880792618,-0.035474296659231186,-0.012917041778564453,0.20034494996070862,-0.13078288733959198,-0.020700611174106598,0.018778372555971146,0.014361957088112831,-0.005510789342224598,0.059546805918216705,-0.059641558676958084,0.04358712583780289,0.05880572646856308,0.054396264255046844,0.12144191563129425,0.15614134073257446,0.07826730608940125,0.06626048684120178,0.0921611338853836,0.08323531597852707,0.16118958592414856,0.10892719030380249,0.11347877979278564,-0.0005724300281144679,0.035291269421577454,0.039054952561855316,0.12481974810361862,-3.6582288885256276e-05,-0.06666111946105957,0.06789463013410568,0.06910102814435959,0.04705549404025078,-0.010445207357406616,0.1646447777748108,-0.15888778865337372,-0.051969125866889954,-0.02755231224000454,-0.00794705655425787,-0.10095706582069397,-0.047400981187820435,-0.031584370881319046,0.0764433741569519,0.06648003309965134,0.04279965162277222,0.06446244567632675,0.14848580956459045,-0.14545074105262756,0.020634055137634277,-0.004977218806743622,-0.02633526362478733,-0.04189470782876015,-0.12984292209148407,-0.03637310862541199,0.012146595865488052,0.010278244502842426,0.009383288212120533,0.010490898042917252,0.014245757833123207,0.015022195875644684,-0.0010807744693011045,-0.0022369122598320246,-0.0029202469158917665,-0.0034577774349600077,-0.0024472009390592575,-0.0018627014942467213,-0.0019999691285192966,-0.0034600922372192144,-0.00480822054669261,-0.006773642264306545,-0.006873501464724541,-0.004922512453049421,-0.004253455437719822,-0.004272605758160353,-0.004095062613487244,-0.00342844077385962,-0.005320136435329914,-0.002475338988006115,0.004809703677892685,0.006354473996907473,0.008537585847079754,0.009748473763465881,0.007988523691892624,0.00578788248822093,0.00016047449025791138,0.0007194223580881953,-0.00025571385049261153,0.00015464758325833827,0.0036926749162375927,-0.0036705024540424347,0.00019664783030748367,-0.0003679582732729614,-0.0011645492631942034,-0.0013739370042458177,-0.0008602131856605411,-0.0005434613558463752,-0.002669824752956629,-0.0022610395681113005,-0.0011797008337453008,0.0002776797045953572,-0.0010882546193897724,-0.00022269689361564815,-0.023217767477035522,-0.02912972867488861,-0.022762196138501167,-0.022964544594287872,0.019794045016169548,-0.04032355546951294,-0.0022771707735955715,-0.012958879582583904,-0.003376087173819542,0.030130309984087944,0.028533197939395905,-0.02643091231584549,0.00018681211804505438,-0.004266347736120224,-0.0071990774013102055,0.018419558182358742,0.10443601757287979,0.02329302951693535,0.01770334504544735,0.03039572760462761,-0.003007951658219099,-0.05304780974984169,-0.02073284052312374,0.048604510724544525,-0.001603023847565055,-0.01587391458451748,0.01635419763624668,0.006163445301353931,0.028554998338222504,-0.11067294329404831,0.033783480525016785,0.04982125014066696,0.04252719506621361,0.04651763662695885,0.12923720479011536,0.017510760575532913,0.006244938354939222,-0.003005546983331442,-0.006080841179937124,-0.019890286028385162,0.15028439462184906,0.05250366032123566,0.005945597775280476,0.007746322080492973,-0.005497656296938658,-0.035415664315223694,-0.03283510357141495,0.04616013169288635,0.021535677835345268,0.017897339537739754,0.018710579723119736,0.02702254429459572,0.013020122423768044,0.014877468347549438,-0.00040294439531862736,-0.007351389154791832,-0.004228117875754833,0.006698198150843382,-0.011745418421924114,-0.0005278727039694786,-0.001062224619090557,-0.01048055849969387,-0.00547596113756299,0.005811036564409733,-0.017670752480626106,-0.006200403906404972,-0.005271015223115683,-0.0012515195412561297,-0.004856366664171219,-0.015433485619723797,-0.0004707022162619978,-0.013608674518764019,0.005153116770088673,0.016295306384563446,0.010753965005278587,-0.0019767938647419214,0.026011483743786812,0.009922975674271584,-0.0039008690509945154,-0.0027950068470090628,0.001370038604363799,0.007063118275254965,-0.012051270343363285,0.0033699613995850086,-0.002965961117297411,-0.0007487256079912186,-0.00015793611237313598,0.00041649711783975363,-0.007714217063039541,-0.005034965928643942,-0.004930004943162203,0.0018094416009262204,-0.0017208674689754844,-0.013176473788917065,0.007297747302800417,-0.006913940887898207,-0.0001571291359141469,0.004305133130401373,0.0002925785956904292,0.00938187912106514,-0.025360969826579094,-0.1173587292432785,0.044795773923397064,0.03979060798883438,0.05612137168645859,0.021214164793491364,0.017697330564260483,-0.03984460234642029,0.030739091336727142,0.030107848346233368,0.020635414868593216,0.04655660316348076,-0.030692975968122482,-0.28411656618118286,0.06930842995643616,0.03731105476617813,0.04572503641247749,-0.003801167942583561,-0.030890505760908127,-0.07877235114574432,0.04805658012628555,0.07439980655908585,0.07559861987829208,0.07900097966194153,-0.040106818079948425,-0.31739482283592224,-0.005053279455751181,0.022572308778762817,0.011429908685386181,0.07614096254110336,0.04168153926730156,-0.07468676567077637,0.11142799258232117,0.1259184628725052,0.12772248685359955,0.08877671509981155,0.005213399417698383,-0.35938242077827454,-0.023233186453580856,-0.050639331340789795,-0.04910095036029816,-0.050406720489263535,-0.016665156930685043,0.07373229414224625,0.010713680647313595,0.011292850598692894,0.01133593637496233,0.011026203632354736,0.010669272392988205,0.011335060000419617,-0.005744846537709236,-0.004845101851969957,-0.004809636622667313,-0.003679610788822174,-0.002513151615858078,-0.0026620286516845226,-0.007680241018533707,-0.007611162029206753,-0.00756954587996006,-0.005679258145391941,-0.004354818724095821,-0.00475270114839077,-0.005119989160448313,-0.005603430792689323,-0.005741716828197241,-0.005426942370831966,-0.006180854514241219,-0.007120730355381966,0.007359044626355171,0.008517401292920113,0.007906637154519558,0.0059054032899439335,0.004321593791246414,0.0057144612073898315,-6.226697587408125e-05,-0.0020242042373865843,-0.0016743881860747933,-0.0012321502435952425,-0.001198003301396966,-0.0003217770718038082,-0.0019010654650628567,-0.001938731293193996,-0.0021808913443237543,-0.002290892880409956,-0.0021309098228812218,-0.001360639464110136,-0.0002580245491117239,-0.0004128250584471971,-0.0004204526194371283,-0.000979120726697147,-0.0020036061760038137,-0.0021156982984393835,-0.013855628669261932,-0.02466139942407608,-0.03549524396657944,-0.042295243591070175,0.01695096306502819,0.057653557509183884,-0.0039228638634085655,-0.01801418326795101,-0.023479944095015526,-0.008607476018369198,-0.04657302424311638,0.12800465524196625,-0.03406227007508278,-0.03518698364496231,-0.08467354625463486,0.002883603097870946,-0.2586350440979004,0.16605889797210693,-0.028204703703522682,-0.019537411630153656,-0.0029784920625388622,-0.020040079951286316,0.030701730400323868,-0.04102838784456253,-0.05685565248131752,-0.06407184898853302,0.0007213189965113997,-0.018883585929870605,0.09464197605848312,0.05614291504025459,0.015222419053316116,0.02017795480787754,-0.01637868583202362,0.033165089786052704,-0.10039988160133362,-0.11272501945495605,0.0162957850843668,0.012945289723575115,-0.0009384896256960928,0.06391137838363647,-0.0029855845496058464,0.15873001515865326,0.02943522483110428,0.02567276544868946,0.0541989766061306,0.054132089018821716,0.01361002866178751,-0.053615666925907135,0.022354912012815475,0.08421831578016281,-0.028784720227122307,0.02445155940949917,-0.03238637000322342,0.1347198188304901,-0.034504566341638565,0.07531782984733582,0.01034974493086338,-0.006127375643700361,-0.00040088416426442564,0.01179864164441824,-0.0035697128623723984,-0.22338618338108063,0.00015136064030230045,0.09760978072881699,0.11442416906356812,0.1098899394273758,0.0011380541836842895,-0.050861820578575134,0.008466335944831371,-0.030791044235229492,0.0007397336303256452,0.013429000973701477,-0.0914294496178627,0.11964969336986542,0.002013735007494688,0.025827422738075256,0.00276139285415411,-0.13092690706253052,-2.1082474631839432e-05,-0.03657977655529976,-0.10476859658956528,-0.3702661991119385,0.006635559257119894,-0.024147797375917435,0.006208930630236864,-0.033734578639268875,-0.0002931311901193112,0.012967321090400219,-0.08207615464925766,0.059882752597332,-0.0025637203361839056,0.005116576794534922,0.008577791042625904,0.1282869130373001,3.7130248529138044e-05,-0.06655846536159515,0.3097275197505951,-0.2906320095062256,-0.0010169402230530977,0.007920301519334316,-0.008389543741941452,0.21487848460674286,0.0004648930625990033,0.08143392950296402,0.21379519999027252,-0.09964592009782791,0.0015187733806669712,-0.07372229546308517,-0.003557487390935421,0.014769709669053555,-0.0005949701298959553,0.25458988547325134,0.10297933965921402,0.3465576469898224,-0.0041502127423882484,0.0006506061181426048,-0.013976664282381535,0.053786493837833405,0.0034852316603064537,-0.031145844608545303,-0.2225789874792099,0.07584400475025177,-0.0023770243860781193,-0.021073177456855774,-0.002697118790820241,0.19290362298488617,0.0002070350165013224,-0.20755042135715485,-0.15082234144210815,0.24229209125041962,0.0017200318397954106,-0.2892407178878784,0.09195514768362045,-0.10875576734542847,0.27153080701828003,-0.06326916068792343,0.2236146628856659,0.2278396487236023,0.2222156822681427,0.24880903959274292,0.30237752199172974,0.4098115563392639,-0.11250592023134232,-0.0957123413681984,-0.10095537453889847,-0.09122832864522934,-0.045407019555568695,0.1971983164548874,-0.055045511573553085,-0.04925096780061722,-0.0330522283911705,-0.047048427164554596,0.06644099205732346,0.12344838678836823,0.0432540662586689,0.07731073349714279,0.09148105978965759,0.059393275529146194,-0.015295985154807568,0.1487288475036621,-0.123688243329525,-0.09149165451526642,-0.09867268055677414,-0.09179358929395676,-0.05353035777807236,-0.08818444609642029,-0.0034527976531535387,0.04725057631731033,-0.004282262176275253,-0.0736205130815506,-0.13184978067874908,-0.2724752128124237,-0.1640472561120987,-0.15967927873134613,-0.19710418581962585,-0.1701722890138626,-0.09256242215633392,0.179950550198555,-0.06681536138057709,-0.05874121934175491,-0.08663710951805115,-0.09394259750843048,-0.02344786562025547,-0.17111632227897644,0.04309723526239395,0.035861533135175705,0.058492254465818405,0.0442216582596302,-0.009625093080103397,0.010790113359689713,-0.0009451477671973407,0.009426804259419441,0.021718431264162064,-0.005532953422516584,-0.11809884011745453,-0.006360556930303574,0.01818980649113655,0.03757327049970627,-0.016412431374192238,0.011956003494560719,-0.016067149117588997,0.053824350237846375,0.03352796286344528,0.021884113550186157,0.017004001885652542,0.016253842040896416,0.02544725500047207,-0.022965507581830025,-0.0014578221598640084,0.03164657950401306,0.013606910593807697,0.045680075883865356,0.004754849709570408,-0.04823579639196396,-0.024605225771665573,0.0029153982177376747,-0.08045711368322372,0.03146672248840332,0.10091083496809006,-0.06337936222553253,0.02633518911898136,0.003966605756431818,0.057672835886478424,0.031061239540576935,-0.004014289937913418,-0.06757992506027222,-0.006109406240284443,-0.02550230734050274,0.043456174433231354,-0.042656030505895615,0.012655208818614483,-0.028280703350901604,0.072859026491642,0.05617596581578255,0.040706608444452286,0.046625349670648575,0.00640055863186717,-0.1379512995481491,0.015097511000931263,0.03686211630702019,0.010594286024570465,0.023451438173651695,-0.041351452469825745,-0.10978193581104279,0.037302304059267044,0.03184284269809723,0.013661504723131657,-0.02830520085990429,-0.006494811736047268,0.005127829033881426,0.05155343934893608,0.033492561429739,-0.009349857456982136,-0.019863629713654518,-0.01673242077231407,0.026240229606628418,0.0707048624753952,0.0008832289604470134,0.001534843584522605,-0.03327478840947151,-0.026123788207769394,-0.059117391705513,-0.019381122663617134,-0.05474631115794182,-0.005600332282483578,-0.012146118097007275,0.009686130098998547,0.26595520973205566,0.08964654803276062,0.046496763825416565,0.008626005612313747,0.030524954199790955,-0.014642096124589443,-0.08257371187210083,0.0006331332260742784,-0.0061481609009206295,0.006384676322340965,0.00888838805258274,-0.01671476848423481,0.02827380783855915,0.016638321802020073,0.015222479589283466,0.013068431988358498,0.01645193248987198,0.006779333110898733,0.008530917577445507,0.00011484952119644731,-0.004563749767839909,-0.004192905034869909,0.0009660268551670015,-0.010381528176367283,0.015162067487835884,-0.0036889167968183756,0.006930946372449398,0.004833053797483444,0.0025290849152952433,0.0038687894120812416,0.017402390018105507,-0.006095688324421644,-0.005271405912935734,-0.003426593728363514,-0.004727698862552643,-0.00012696211342699826,0.004978160373866558,0.010309959761798382,0.009023187682032585,0.0013610433088615537,0.005025156307965517,0.006358797661960125,-0.03496025875210762,-0.005765785463154316,0.004810711368918419,0.006312304642051458,0.0015576473670080304,0.003635913133621216,-0.020189179107546806,-0.004868523683398962,-0.008527836762368679,-0.009513968601822853,-0.004534824751317501,-0.016580205410718918,-0.0027249036356806755,0.0037452916149049997,-0.006017832551151514,-0.004050181247293949,-0.002623398555442691,0.003919386304914951,0.013264605775475502,0.010130656883120537,0.009397529065608978,0.006104211788624525,-0.013771560974419117,-0.0016474188305437565,-0.23105499148368835,0.03537702560424805,0.04072008654475212,0.06039777025580406,0.046717651188373566,0.044459372758865356,-0.08819948881864548,0.041210465133190155,0.04729294404387474,0.03442059084773064,0.00035071204183623195,0.008923918940126896,-0.3560187518596649,0.04098060354590416,0.05321019887924194,0.032845571637153625,0.014429661445319653,-0.04718157649040222,0.12884168326854706,0.06824691593647003,0.06074308231472969,0.04626719281077385,0.022777622565627098,0.011486859992146492,-0.3461390435695648,-0.005744490306824446,-0.007157445419579744,0.0012283516116440296,0.00829140841960907,-0.07051876932382584,0.06328711658716202,0.08102785050868988,0.05997401475906372,0.030981915071606636,0.01065114140510559,0.009841132909059525,-0.10207116603851318,0.01916060596704483,-0.002868316601961851,0.014223316684365273,-0.012635627761483192,-0.007208161987364292,0.09509696811437607,0.1661277413368225,0.1726091355085373,0.16731667518615723,0.16292046010494232,0.16508421301841736,0.06721655279397964,-0.03247462585568428,-0.013935810886323452,-0.015378952957689762,-0.027550311759114265,-0.0632936879992485,-0.1589508205652237,0.05514644831418991,0.05078142508864403,0.03672309219837189,0.06352298706769943,0.0066785248927772045,-0.08105254173278809,0.027585677802562714,0.03374677523970604,0.04371738061308861,0.06873566657304764,0.055764324963092804,0.10361335426568985,0.03176214173436165,0.01438581570982933,-0.015301784500479698,-0.01790612004697323,0.04928842559456825,0.037929926067590714,-0.033788010478019714,-0.08583103865385056,-0.07862351089715958,-0.07452672719955444,-0.03229495882987976,-0.08953014761209488,-0.04229533672332764,-0.06849706918001175,-0.04875059053301811,-0.06021919846534729,-0.052934326231479645,-0.1787429004907608,0.0033399262465536594,-0.008768913336098194,0.00801065843552351,-0.013264712877571583,-0.024248864501714706,0.10142406821250916,0.13478878140449524,0.12046846747398376,0.13290199637413025,0.10554906725883484,0.1512899249792099,0.12325655668973923,-0.03981654345989227,-0.033732883632183075,-0.030355632305145264,-0.05692988634109497,-0.01083385944366455,0.04721410572528839,-0.0025944963563233614,-0.00933551974594593,-0.0008086638990789652,-0.010276746936142445,-0.00911965686827898,0.08939880132675171,-0.004865108523517847,-0.008446956984698772,-0.00434276694431901,-0.02339339256286621,-0.0479927584528923,-0.168573260307312,-0.0011091663036495447,-0.01826430857181549,0.002726740436628461,-0.030099745839834213,0.052199531346559525,-0.050134941935539246,-0.02208692952990532,-0.023282691836357117,-0.024290580302476883,-0.04888474941253662,-0.07025759667158127,0.18545114994049072,-0.05476151034235954,-0.07304760068655014,-0.045455217361450195,-0.13125479221343994,-0.081050343811512,-0.1449335217475891,-0.0036475639790296555,0.001544649712741375,0.0013951475266367197,-0.025350084528326988,-0.01809149980545044,-0.11189599335193634,0.02104668878018856,0.02047351375222206,0.017980467528104782,0.014378758147358894,0.013266726396977901,0.01852313242852688,0.0019106450490653515,0.0022659599781036377,0.0016886781668290496,-0.002382621169090271,-0.009867883287370205,-0.005444484297186136,0.0057616038247942924,0.004871336277574301,0.004066214431077242,-0.0016925776144489646,-0.007895988412201405,0.009512587450444698,-0.0016635627252981067,-0.0034823843743652105,-0.0046236272901296616,0.0011184557806700468,-0.003869880922138691,-0.00780777120962739,0.0036641061305999756,0.0062577128410339355,0.0020877027418464422,0.000964011182077229,0.008379778824746609,0.01161846425384283,-0.007411818020045757,-0.0008238177397288382,-0.003553139977157116,-0.00639678118750453,0.007292690221220255,0.013486268930137157,-0.004169505089521408,-0.006173255853354931,-0.010282748378813267,-0.011085796169936657,-0.014001110568642616,-0.017485588788986206,0.005402826238423586,0.0029398836195468903,0.0044617061503231525,0.0074375527910888195,0.006159227341413498,-0.014114788733422756,-0.5959752798080444,-0.04506278410553932,-0.05503123626112938,-0.018523944541811943,0.12340963631868362,-0.23112396895885468,-0.2740445137023926,-0.0243004709482193,0.10545680671930313,-0.0037557543255388737,-0.016205312684178352,0.0027211240958422422,-0.21291479468345642,-0.01453122217208147,-0.005286980886012316,-0.0016607641009613872,-0.22391529381275177,-0.0041482397355139256,0.05491918325424194,0.013985534198582172,-0.22310201823711395,0.14193250238895416,-0.1421283483505249,-0.020613351836800575,0.08071236312389374,0.08184902369976044,0.0988922193646431,0.0270854402333498,-0.11291952431201935,-0.21625207364559174,0.33319932222366333,0.0051809512078762054,-0.16788725554943085,-0.13033157587051392,0.02623812109231949,-0.001159818610176444,0.018584296107292175,0.19083987176418304,0.18866147100925446,-0.00372252962552011,0.6181697845458984,-0.056217823177576065,-0.24213933944702148,0.014083039946854115,0.09213913232088089,0.015737559646368027,0.14909479022026062,0.02159116044640541,0.11617505550384521,0.02774178236722946,-0.06323714554309845,0.013195506297051907,0.16205735504627228,-0.15406279265880585,0.1457139551639557,0.008607421070337296,-0.38003984093666077,0.16867412626743317,0.1994040161371231,0.004393650684505701,0.2010926455259323,0.24116025865077972,-0.15163227915763855,-0.009612521156668663,-0.23360128700733185,0.06291287392377853,0.03426560014486313,0.005816055461764336,0.13035348057746887,0.07707444578409195,0.002277105813845992,0.002858656458556652,0.0070483083836734295,0.06841498613357544,0.16323444247245789,-0.0005532160284928977,0.21959003806114197,0.12656523287296295,-0.24408911168575287,0.0010422359919175506,-0.11573221534490585,-0.1298464834690094,0.05075065791606903,-0.2210872918367386,-0.01403047051280737,-0.10572715103626251,-0.2388761341571808,-0.15468449890613556,0.003268221393227577,0.004529481288045645,0.012295259162783623,0.009351675398647785,0.01557859592139721,-0.2053046077489853,0.003022046759724617,0.009179848246276379,0.004246307071298361,0.011081616394221783,0.01899358257651329,-0.13651233911514282,-0.04366602748632431,-0.03469408303499222,-0.022169874981045723,-0.0485372394323349,-0.0503762923181057,0.30823081731796265,-0.03681441769003868,-0.012151871807873249,-0.023824486881494522,-0.021173378452658653,-0.07010400295257568,-0.005033579189330339,-0.029779577627778053,-0.014424390159547329,-0.03709153085947037,-0.03521331027150154,0.005839444696903229,0.10034586489200592,0.011583778075873852,0.008132007904350758,0.032436762005090714,0.002396100666373968,-0.040412645787000656,0.3426324725151062,0.030973074957728386,0.028466900810599327,0.025141187012195587,0.02798633836209774,0.0699656680226326,0.1337839812040329,0.007484076544642448,0.0018328828737139702,0.02250729128718376,-2.2199774321052246e-05,0.011762718670070171,-0.086072638630867,0.08156135678291321,0.08715197443962097,0.12186149507761002,0.09841039776802063,0.12360339611768723,0.1027117669582367,0.009113632142543793,0.0027049060445278883,0.002047131536528468,-0.013617089949548244,-0.016095362603664398,0.2792133390903473,0.013354536145925522,0.01826487109065056,0.02371133677661419,0.015118654817342758,-0.0020130553748458624,0.15541279315948486,0.038733769208192825,0.028866512700915337,0.038935497403144836,0.02965591475367546,0.05977266654372215,-0.020454011857509613,0.012239160016179085,0.007860112935304642,-0.003533819457516074,0.0017334824660792947,-0.013553999364376068,-0.08031933754682541,0.017923638224601746,0.005842079874128103,0.005339526105672121,-0.0015986013459041715,-0.006780806928873062,-0.29701128602027893,-0.030466657131910324,-0.047407589852809906,-0.05553622916340828,-0.048901867121458054,-0.021596046164631844,-0.0832730159163475,0.006368541158735752,0.008923476561903954,0.015841268002986908,-0.0029222441371530294,-0.02330063469707966,-0.27053409814834595,0.27746620774269104,0.2586580812931061,0.2833726704120636,0.27378392219543457,0.24639572203159332,0.10542067140340805,-0.0014683553017675877,0.017472555860877037,-0.02345208078622818,-0.006449062842875719,-0.00870445091277361,-0.097062848508358,0.06535100936889648,0.02924569696187973,0.06759161502122879,0.02304786443710327,0.03866736218333244,-0.024867622181773186,0.10618077218532562,0.11791087687015533,0.08515734225511551,0.12795278429985046,0.11790365725755692,0.11048384755849838,0.006834250874817371,-0.014963882975280285,-0.04920488968491554,-0.047937966883182526,-0.07689308375120163,-0.020948540419340134,0.014248624444007874,0.001732858712784946,0.03407716378569603,0.005828191991895437,0.013964365236461163,-0.02428404428064823,-0.059073902666568756,-0.08281125873327255,-0.08454053103923798,-0.10294754803180695,-0.12471915036439896,-0.21290679275989532,0.024698419496417046,0.0076228599064052105,0.04338094964623451,-0.005607208237051964,0.005792317446321249,0.09088805317878723,-0.014976623468101025,0.0019276509992778301,0.024255909025669098,0.03241351619362831,0.09750328212976456,0.05616229027509689,0.00867511983960867,0.04069732502102852,0.035703886300325394,0.03901803866028786,0.04916291683912277,0.05221628025174141,-0.026478398591279984,-0.03896128013730049,-0.0560980923473835,0.012504116632044315,0.0008947922615334392,0.005639786832034588,0.022350627928972244,0.05996625870466232,0.003022416029125452,-0.004216702654957771,-0.040441758930683136,-0.07295986264944077,-0.023332353681325912,-0.03975432366132736,0.01268791500478983,0.008687593042850494,0.06149416044354439,-0.08256600052118301,0.037155602127313614,0.013840749859809875,0.03343583270907402,0.028668079525232315,-0.05143946036696434,-0.05094808712601662,0.062354862689971924,0.13158529996871948,0.169925719499588,0.12611815333366394,0.24407009780406952,0.16263727843761444,-0.003938630223274231,-0.018225563690066338,0.011702993884682655,0.041191890835762024,0.04148663580417633,0.043600793927907944,0.1639232486486435,0.16799437999725342,0.15139888226985931,0.19944387674331665,0.24418692290782928,0.10857971757650375,0.027404669672250748,0.003539902623742819,-0.005438880994915962,-0.017788540571928024,-0.014637721702456474,-0.18014240264892578,-0.012109354138374329,-0.0007348463987000287,0.007706859614700079,0.024809202179312706,-0.01136246882379055,-0.2158636897802353,0.05725916102528572,0.060704462230205536,0.06853386759757996,0.0858817994594574,0.12338297814130783,0.415159672498703,0.0017270282842218876,-0.009088902734220028,0.0061525763012468815,-0.023427454754710197,-0.0361030288040638,0.1954762488603592,0.05162797123193741,0.042192958295345306,0.0306661706417799,0.045217227190732956,0.030980510637164116,-0.3279579281806946,-0.07718373090028763,-0.07918097078800201,-0.05154348537325859,-0.06915333122015,-0.06686677783727646,0.19968430697917938,0.027050722390413284,0.016415027901530266,-0.004430394619703293,0.0053799268789589405,-0.038663528859615326,0.3332858383655548,0.10706381499767303,0.11462336778640747,0.16145537793636322,0.13038791716098785,0.12371081113815308,0.008011278696358204,0.0017925415886566043,0.028434325009584427,0.032978273928165436,0.028767496347427368,0.016384737566113472,-0.12445871531963348,0.010239623486995697,0.03656063973903656,-0.004464819561690092,0.02721053548157215,-0.01037622895091772,-0.06964080780744553,0.03237685561180115,0.04862658306956291,0.02938447892665863,0.016551651060581207,0.06546227633953094,0.10579778254032135,0.04547349363565445,0.06002253293991089,0.08987537771463394,0.026350369676947594,-0.005312498193234205,-0.03894802927970886,0.03755290061235428,-0.011026071384549141,-0.036868344992399216,-0.0012442817678675056,-0.03990995138883591,0.14542856812477112,0.006517695263028145,0.037231918424367905,0.09964371472597122,0.04904307425022125,0.04575027897953987,-0.07140667736530304,-0.01377622690051794,0.0009879887802526355,0.0019017293816432357,0.025890182703733444,0.018823256716132164,0.10991302877664566,-0.05572786182165146,-0.11567498743534088,-0.0344998762011528,-0.08771733194589615,-0.0014540941920131445,0.014136364683508873,-0.04580705985426903,0.007702924311161041,-0.04068450257182121,-0.04454416781663895,-0.09865232557058334,0.011265376582741737,-0.01758849062025547,-0.03217687830328941,-0.07293423265218735,-0.1058303713798523,-0.1025925725698471,0.059037063270807266,0.07883304357528687,0.037779077887535095,0.030682004988193512,0.024936044588685036,0.043702393770217896,-0.06221265345811844,-0.10763430595397949,-0.09762441366910934,-0.1635017693042755,-0.10216449946165085,-0.15670518577098846,-0.013470628298819065,-0.009567520581185818,0.07311846315860748,0.13670319318771362,0.05458410456776619,0.06230676546692848,-0.12705029547214508,-0.12757053971290588,-0.047499142587184906,-0.10642503947019577,-0.0705874040722847,-0.16626083850860596,0.04817703738808632,-0.06422312557697296,0.01099992822855711,0.0208987295627594,-0.046004269272089005,-0.05693934112787247,0.004752476699650288,0.08399506658315659,0.0862150490283966,0.08836700767278671,0.10116900503635406,0.11473968625068665,0.10900996625423431,0.020010612905025482,0.01951615884900093,5.4907297453610227e-05,0.0007232533534988761,-0.030656887218356133,-0.13516804575920105,-0.003283572616055608,0.012173746712505817,0.02474174275994301,0.01874127797782421,0.018094617873430252,-0.08665044605731964,0.05783051252365112,0.04751940444111824,0.022921821102499962,0.03975711017847061,0.03194211795926094,0.2381255179643631,-0.02734142541885376,-0.007858331315219402,-0.010163428261876106,-0.018724637106060982,-0.039821479469537735,0.1450280249118805,0.02786952443420887,0.031242694705724716,0.008916214108467102,0.024042297154664993,0.012376487255096436,-0.19547420740127563,-0.05356626212596893,-0.04816144332289696,-0.040777537971735,-0.03985792025923729,-0.05802866071462631,0.11843127757310867,0.007181862834841013,0.015782978385686874,0.02161814644932747,0.020142490044236183,0.01636052131652832,0.19259707629680634,0.0025793341919779778,-0.25005438923835754,-0.4490174651145935,0.055741384625434875,-0.4384344518184662,-0.13763470947742462,0.10359898209571838,-0.23433516919612885,0.17566443979740143,0.04523009434342384,-0.01570572704076767,-0.008603451773524284,0.01756204664707184,-0.022631686180830002,-0.047465935349464417,0.010269716382026672,0.2814144492149353,-0.2085353434085846,0.3127444386482239,0.022390957921743393,-0.04049450904130936,0.16553173959255219,0.08248086273670197,-0.10578162968158722,0.1384275108575821,0.51039057970047,0.07187613844871521,0.02405110001564026,-0.5306198596954346,-0.13017700612545013,-0.3566390573978424,-0.3460327684879303,0.07181549817323685,0.11641564965248108,0.5705664157867432,-0.17015893757343292,0.062223490327596664,0.07497251778841019,0.08497672528028488,-0.04314832389354706,-0.09047563374042511,0.014982836320996284,-0.1610870063304901,-0.29507845640182495,0.019075844436883926,-0.1277334988117218,0.3396051824092865,0.11720463633537292,0.020023563876748085,0.07449603080749512,-0.2055242657661438,-0.03723505884408951,0.12180597335100174,0.008289691992104053,-0.025222016498446465,0.11800114810466766,0.19152678549289703,-0.08618936687707901,0.3684910237789154,0.00024260504869744182,0.15177367627620697,0.26737475395202637,-0.00673219608142972,-0.009712335653603077,0.085472472012043,0.12817111611366272,-0.031183350831270218,0.1749735027551651,-0.08552531898021698,0.07128506153821945,0.039374470710754395,-0.08721014112234116,-0.21949009597301483,-0.37314391136169434,-0.31488433480262756,0.11756721138954163,0.3884868025779724,0.12039009481668472,-0.22852367162704468,0.3144455850124359,0.29678547382354736,0.04933488741517067,-0.06364560127258301,-0.047055549919605255,-0.03942205756902695,0.07345461845397949,0.02101619355380535,-0.009021981619298458,0.04329300299286842,0.046550851315259933,0.02691282145678997,0.03017830103635788,0.026741893962025642,0.15240173041820526,0.03940073773264885,0.004599794279783964,-0.015499112196266651,-0.02239329367876053,-0.02205071784555912,0.061090122908353806,-0.02092287875711918,-0.00723770447075367,-0.0009537290898151696,-0.0306421909481287,-0.008454259485006332,0.04364405572414398,0.011931560933589935,0.016497906297445297,0.0044173202477395535,0.03826269134879112,0.06523755937814713,0.061164259910583496,-0.013199837878346443,-0.07072845101356506,-0.08215394616127014,-0.04315068572759628,-0.0691804438829422,-0.0658947303891182,0.013497068546712399,0.003367978148162365,0.03151234611868858,0.01633683778345585,0.04312289133667946,-0.11518541723489761,-0.011310135014355183,-0.014473212882876396,-0.05564477667212486,-0.1095268577337265,-0.043125301599502563,0.09634008258581161,0.024162089452147484,0.02610744722187519,0.02354593016207218,-0.02394246682524681,-0.026525428518652916,-0.03658800944685936,0.008620334789156914,0.010066362097859383,0.017998507246375084,0.013585382141172886,0.00901477225124836,0.011096984148025513,0.0041168793104588985,0.0029787609819322824,0.0065465630032122135,0.006575599312782288,0.005464103538542986,0.0016467549139633775,-0.0018857611576095223,0.011608161963522434,-0.004144720733165741,0.0001694954262347892,0.00238939025439322,0.009166940115392208,0.003587100189179182,0.00733828404918313,0.0009882734157145023,0.0028877914883196354,0.006368611939251423,-0.001991605618968606,-0.005959595087915659,-0.001745054149068892,-0.002284692134708166,-0.006242705974727869,-0.009945506229996681,-0.0077001494355499744,-0.007977001368999481,-0.005639033392071724,-0.02449738420546055,-0.020396258682012558,-0.016440629959106445,-0.00372603302821517,-0.020765816792845726,-0.018677331507205963,-0.006706034764647484,-0.0065345619805157185,-0.012642177753150463,-0.02752583846449852,-9.72141933743842e-05,-0.002549166325479746,0.0037802718579769135,0.0037315073423087597,0.0014352868311107159,0.0024052837397903204,0.07767888903617859,0.047343701124191284,0.02414497546851635,0.09836209565401077,0.16261763870716095,0.003489488735795021,-0.018936334177851677,0.010166773572564125,0.01869385689496994,0.007224497385323048,0.10328871011734009,-0.07315544039011002,-0.03089730255305767,-0.04073028638958931,-0.004793607164174318,-0.0043812221847474575,-0.048812564462423325,0.0654253363609314,0.05639905482530594,0.07684982568025589,0.043212227523326874,-0.023328185081481934,-0.08401430398225784,0.03852084279060364,0.02638401836156845,-0.0003285123675595969,-0.0194082111120224,0.07001885771751404,0.08381056040525436,0.03761117905378342,0.0033993502147495747,0.01613805443048477,0.011184753850102425,-0.00239715282805264,-0.008810684084892273,0.17975547909736633,0.028115056455135345,0.05043855682015419,0.07750459015369415,0.16543735563755035,0.2719924747943878,0.18247655034065247,-0.0463603213429451,-0.028993021696805954,0.005164372734725475,0.011539129540324211,0.1338081806898117,-0.03687983751296997,0.0720963254570961,0.04876646026968956,0.03444758057594299,0.01863711141049862,0.00866023264825344,-0.0344386026263237,-0.0015405992744490504,-0.01778121292591095,-0.02135411836206913,-0.031091270968317986,-0.05835108831524849,0.13421480357646942,0.06213803589344025,0.04459358751773834,0.030179211869835854,0.011094961315393448,-0.00970764085650444,0.024249937385320663,0.06123499944806099,0.0623343363404274,0.09227676689624786,0.12230360507965088,0.11899938434362411,0.1983780413866043,0.02451336197555065,-0.005322691518813372,0.019196778535842896,0.014436495490372181,-0.06899067014455795,0.02900879643857479,0.0015989680541679263,-0.025176435708999634,0.021126285195350647,0.01972791738808155,-0.0003553437127266079,-0.08460438996553421,-0.02851264178752899,-0.09219182282686234,-0.10069330036640167,-0.1469549983739853,-0.24145616590976715,0.02962202951312065,-0.0023913655895739794,-0.0296688973903656,-0.05139811709523201,-0.0831761285662651,-0.09824825823307037,-0.0642750933766365,0.06542550027370453,0.08457151800394058,0.08685078471899033,0.07982155680656433,0.13808606564998627,0.07824155688285828,0.04251096025109291,0.02863800711929798,0.04177238419651985,0.025883158668875694,0.032996177673339844,-0.11937333643436432,0.004923572763800621,-0.0025774172972887754,-0.004401460289955139,0.01500405091792345,0.06489934027194977,0.10009811818599701,0.014805398881435394,0.02315450832247734,0.02920987829566002,-0.0028968180995434523,-0.012081022374331951,0.04102392867207527,0.026428265497088432,0.02491099201142788,0.007899719290435314,0.05564811825752258,0.05607789009809494,-0.04390496760606766,0.027521081268787384,0.0231531523168087,0.03328574076294899,0.0040350425988435745,-0.03703112155199051,0.15078966319561005,-0.03973538801074028,-0.03199683874845505,-0.009699046611785889,-0.05792761966586113,0.005412620026618242,-0.12173106521368027,0.03888823464512825,0.022768082097172737,0.029191765934228897,0.02857319265604019,0.05676180496811867,0.07839301973581314,0.09818796813488007,0.10130193829536438,0.1072101965546608,0.09915544837713242,0.1282825469970703,0.18896484375,0.02908266894519329,0.018208155408501625,0.045732587575912476,0.0427323542535305,0.04354057461023331,-0.15152932703495026,0.07566630095243454,0.06547439843416214,0.08916880190372467,0.1114954799413681,0.06367510557174683,0.243417888879776,0.07782047241926193,0.07682668417692184,0.034802231937646866,0.04894253984093666,0.038956522941589355,-0.0011843960965052247,0.03260345011949539,0.031491782516241074,0.017140109091997147,0.02099725604057312,0.03719788417220116,-0.0406576469540596,-0.00901351310312748,-0.0013660864206030965,-0.03198549523949623,0.0007589069427922368,-0.040115129202604294,0.15097083151340485,-0.09123890101909637,-0.13322407007217407,-0.09909506142139435,-0.10908670723438263,-0.060861095786094666,-0.10729297995567322,0.014310079626739025,-0.0005007254658266902,0.05162336304783821,0.042290154844522476,0.04885552078485489,0.15595604479312897,0.01545456051826477,0.014625871554017067,0.01273952703922987,0.012894696556031704,0.01496015302836895,0.021593431010842323,0.00212438078597188,0.0008543086005374789,0.0021582685876637697,0.0013065246166661382,-0.0005130757344886661,0.0056356447748839855,0.0006147410604171455,0.001057899440638721,0.0010881078196689487,0.0011450453894212842,0.0010427795350551605,0.00016080225759651512,0.0050288052298128605,0.0035649219062179327,0.003981131128966808,0.005130030680447817,0.00605429382994771,0.0023399298079311848,0.0006310636526905,0.0067123426124453545,0.007912397384643555,0.007399358786642551,0.004731576424092054,0.007947281002998352,-0.010998007841408253,-0.01557061169296503,-0.012357383035123348,-0.010749021545052528,-0.008175467140972614,-0.009156817570328712,-0.0160113126039505,-0.01289391703903675,-0.009213934652507305,-0.010663882829248905,-0.017414329573512077,-0.01945609226822853,-0.0018909013597294688,-0.0028845288325101137,-0.0017323136562481523,-0.0009878070559352636,-0.003161953529343009,0.0009505630587227643,0.019372383132576942,0.009204273112118244,-0.03376222029328346,0.04159126430749893,0.026728810742497444,0.015688078477978706,0.00021244243544060737,0.007076152600347996,-0.03894789516925812,-0.008849951438605785,-0.00014337369066197425,0.01565799117088318,-0.006443163845688105,-0.012646852992475033,-0.002035222016274929,-0.019476845860481262,-0.012140358798205853,-0.019020792096853256,0.02338898554444313,0.014469538815319538,0.017708340659737587,0.0028740433044731617,0.008250020444393158,0.024914121255278587,-0.02178840897977352,-0.02400192804634571,-0.07874246686697006,0.008021880872547626,0.013121466152369976,0.016554024070501328,-0.0012204573722556233,0.01870248094201088,0.10603519529104233,-0.012926336377859116,0.02568323351442814,0.015541226603090763,-0.006061455234885216,0.0364142470061779,-0.06987611204385757,0.014381444081664085,0.03297511488199234,-0.006260889116674662,-0.011607944034039974,0.024009283632040024,0.008572426624596119,-0.027666928246617317,0.019283533096313477,-0.012791440822184086,-0.10409138351678848,-0.029474597424268723,-0.082664854824543,-0.31004589796066284,-0.2135632038116455,-0.2949427664279938,-0.04371057078242302,-0.030282655730843544,0.01779782585799694,-0.0015177956083789468,0.02285013534128666,0.005591810215264559,-0.013995341025292873,0.014390341006219387,-4.668529800255783e-05,-0.0067602298222482204,0.030747249722480774,-0.0008075686637312174,-0.0212574265897274,-0.07379280030727386,0.12726639211177826,0.2508665919303894,-0.004662685561925173,-0.03963005170226097,-0.030042771250009537,0.004505064804106951,0.1905108541250229,0.002612002892419696,-0.21661050617694855,-0.1425924450159073,6.778243550797924e-05,-0.08820346742868423,-0.08751265704631805,0.000450651888968423,0.001407906413078308,-0.15166644752025604,0.10258226096630096,0.28344792127609253,-0.011147871613502502,-0.06815765053033829,0.06936412304639816,-0.006864774506539106,-0.26932084560394287,0.4275619387626648,-0.0223506111651659,-0.04906453564763069,7.041168282739818e-05,0.03338433802127838,0.07531149685382843,0.0010328771313652396,-0.0079648457467556,0.06097779795527458,-0.13590994477272034,-0.1915660947561264,-0.000866623071487993,-0.06799880415201187,0.12035323679447174,-0.0010656343074515462,0.03574540838599205,0.02455536462366581,0.30922454595565796,0.351959228515625,0.0003143295180052519,0.08795618265867233,-0.09678252786397934,0.00294967251829803,-0.049728378653526306,-0.107393279671669,0.0701693594455719,0.12365235388278961,0.0014166090404614806,-0.03205900266766548,0.11186833679676056,0.0007646086160093546,0.13662412762641907,-0.1074071079492569,-0.014260292053222656,0.021085036918520927,0.005865553859621286,-0.03249349817633629,0.3721058964729309,0.054068807512521744,-0.0329311229288578,0.20900750160217285,0.08862722665071487,-0.08935924619436264,-0.07993324100971222,0.11018458753824234,0.03905220329761505,0.04091688618063927,0.054097939282655716,0.01350238174200058,0.034851640462875366,0.049709878861904144,0.002646760316565633,0.008951209485530853,0.020730920135974884,0.04904920607805252,0.03884550929069519,-0.11470163613557816,0.028288401663303375,0.022730637341737747,0.02313373237848282,0.029950467869639397,0.033969271928071976,0.05847387760877609,0.015513109043240547,0.011097864247858524,-0.007683579809963703,-0.023029062896966934,-0.026780039072036743,-0.13822530210018158,0.007093906868249178,0.01230645552277565,0.046763256192207336,0.04523520544171333,0.06465526670217514,-0.18466342985630035,-0.03438850864768028,-0.025692520663142204,-0.005628656130284071,-0.0038452574517577887,-0.023019611835479736,0.2406086027622223,-0.07937202602624893,-0.057684339582920074,-0.04850359261035919,-0.038706544786691666,0.025900309905409813,-0.05908505618572235,0.006077321711927652,0.011544518172740936,0.02016674354672432,0.052883829921483994,0.044968243688344955,0.1532650738954544,-0.00342831714078784,0.01255070511251688,-0.01522076316177845,-0.02021743543446064,-0.010672392323613167,0.08204913884401321,0.015263338573276997,0.05494362488389015,0.08448303490877151,0.11111551523208618,-0.017154762521386147,-0.002330777933821082,-0.009674463421106339,0.012603352777659893,0.030883463099598885,0.06209183111786842,-0.003721862332895398,-0.16105012595653534,-0.0369778573513031,-0.044425588101148605,-0.060614071786403656,-0.038127388805150986,0.054266590625047684,-0.16504597663879395,0.04380202665925026,0.062942273914814,0.09744728356599808,0.06596463918685913,-0.014787731692194939,-0.158969447016716,0.00043768694740720093,0.010818392038345337,0.033331871032714844,0.06485811620950699,0.02976037561893463,0.11697658896446228,-0.005773585755378008,0.0068724690936505795,0.0321488082408905,0.03330446407198906,-0.04368625208735466,-0.10229126363992691,0.01488071121275425,0.062102098017930984,0.09130397439002991,0.12398529797792435,-0.029908787459135056,0.08218369632959366,0.0018288620049133897,0.014499710872769356,0.019018178805708885,0.045787110924720764,0.023973293602466583,-0.06616334617137909,0.012430584989488125,0.005263986065983772,0.0194765105843544,-0.009539991617202759,-0.015001950785517693,-0.17601710557937622,-0.016745127737522125,-0.031021153554320335,-0.020320076495409012,-0.0329304113984108,0.0028946208767592907,-0.26562628149986267,0.0007594642229378223,0.02213251031935215,0.023468773812055588,-0.018661804497241974,-0.03606602922081947,0.035123731940984726,-0.02131352759897709,-0.02291380986571312,-0.008521735668182373,0.015624492429196835,0.018387312069535255,0.052967991679906845,0.008186611346900463,-0.008403520099818707,0.0063597955740988255,-0.007081941235810518,-0.025431746616959572,0.02844310738146305,-0.008860683999955654,-0.014380060136318207,-0.01998591609299183,-0.039746709167957306,-0.028667641803622246,-0.10979688912630081,0.006664120126515627,-0.011514607816934586,-0.0028392926324158907,-0.01176222413778305,-0.0006690245936624706,0.10137578099966049,-0.020388348028063774,-0.02522353269159794,-0.010536749847233295,-0.020700883120298386,-0.025866230949759483,-0.1309264749288559,-0.010826281271874905,-0.006838518660515547,-0.009351666085422039,-0.0050566294230520725,-0.0008017609361559153,-0.054317086935043335,0.009098813869059086,-0.004704582504928112,-0.006728835869580507,0.0032826291862875223,0.00930128525942564,0.34264713525772095,-0.01767944172024727,-0.029272068291902542,-0.023846125230193138,-0.019756441935896873,-0.029358811676502228,-0.018841398879885674,0.02078316919505596,0.008145704865455627,0.008630609139800072,-0.0073451511561870575,0.0033665532246232033,-0.17109155654907227,-0.026983175426721573,-0.01943223737180233,-0.02919454127550125,-0.034043312072753906,-0.01652868278324604,0.021089551970362663,-0.02659960836172104,-0.0242035873234272,-0.028113581240177155,-0.04162008315324783,-0.002792859449982643,0.1947917640209198,-0.012950864620506763,-0.0028650332242250443,-0.006773419678211212,0.001469594077207148,0.010306427255272865,0.10810733586549759,0.010223905555903912,0.009616526775062084,0.00875826459378004,0.004114829935133457,0.008139156736433506,0.02845446579158306,0.012729854322969913,0.003950558602809906,-0.002499939640983939,0.012532968074083328,0.003232858842238784,0.0015647854888811707,0.0053163254633545876,-0.004616035148501396,0.011620672419667244,0.003232143586501479,-0.015057504177093506,-0.026018930599093437,-0.006740055978298187,0.008855273015797138,0.014077692292630672,0.023364873602986336,-0.0036979415453970432,-0.01923351362347603,0.011492937803268433,0.006848132703453302,0.013333937153220177,-0.010868069715797901,0.01372845284640789,-0.017329350113868713,-0.0046251993626356125,0.0004938475321978331,-0.005934452172368765,-0.02996547892689705,-0.009912488050758839,-0.0375329852104187,0.002867185277864337,0.004220344591885805,-0.0034240474924445152,-0.00431924918666482,0.004991570953279734,-0.016257645562291145,0.006976421922445297,-0.006388047710061073,-0.013976242393255234,-0.008994532749056816,0.0007012012065388262,-0.002790361875668168,-0.009151868522167206,-0.014766320586204529,-0.007078771013766527,-0.013960089534521103,-0.014661123976111412,0.14078892767429352,-0.007856150157749653,-0.011215352453291416,-0.025550104677677155,-0.01722937822341919,0.009246631525456905,-0.06301910430192947,0.003922080621123314,0.007270253263413906,-0.0026475582271814346,0.00875704362988472,0.029066598042845726,-0.301465779542923,-0.0043707191944122314,0.004707136191427708,0.006193654611706734,-0.017446966841816902,-0.04013138264417648,-0.28215959668159485,0.0032327582594007254,-0.014905676245689392,-0.022212684154510498,0.0018971995450556278,0.022981878370046616,-0.03722289949655533,-0.006292608100920916,-0.009137432090938091,-0.01722078211605549,-0.02104545757174492,-0.016834557056427002,-0.08447732776403427,0.008173390291631222,0.008583375252783298,0.0009401965071447194,-0.00974525697529316,0.013781050220131874,-0.18531812727451324,-0.004315365571528673,-0.009014868177473545,-0.022220663726329803,-0.005875051952898502,0.030667655169963837,-0.03740070387721062,0.014771903865039349,-0.007255921605974436,0.0005947611061856151,0.008136691525578499,0.015561571344733238,0.006161343771964312,-0.009202915243804455,-0.020443808287382126,-0.016886750236153603,-0.010100536048412323,-0.0033513016533106565,0.002283655107021332,0.023043325170874596,0.03176791965961456,0.01698085479438305,0.016658451408147812,0.004268082790076733,0.010414199903607368,0.022541610524058342,0.0339096300303936,0.03707040846347809,0.03594943508505821,0.02332010120153427,0.02162960357964039,0.009315606206655502,-0.0292592104524374,-0.0303743164986372,0.0001692809455562383,-0.0013925108360126615,0.02668115124106407,0.008004317060112953,0.017306024208664894,-0.0002122443402186036,-0.005943243857473135,-0.010258080437779427,-0.015077122487127781,-0.02592424489557743,-0.050642527639865875,-0.05200749635696411,-0.032401107251644135,-0.017752250656485558,-0.04701651632785797,